demos: (480, 200, 19)
demo_rewards: (480,)
sorted_train_rewards: [-1.68281407e+02 -1.45727567e+02 -1.39123043e+02 -1.25906495e+02
 -1.23737226e+02 -1.18441257e+02 -1.15454518e+02 -1.15278652e+02
 -1.14763156e+02 -1.14085096e+02 -1.12885489e+02 -1.11179560e+02
 -1.10579609e+02 -1.10248073e+02 -1.06969949e+02 -1.05880618e+02
 -1.03152139e+02 -1.01565908e+02 -1.00495946e+02 -1.00348353e+02
 -9.79572956e+01 -9.72257679e+01 -9.60581398e+01 -9.47527923e+01
 -9.42721572e+01 -9.39936009e+01 -9.08470847e+01 -8.99058909e+01
 -8.98050349e+01 -8.92193126e+01 -8.88554189e+01 -8.76650055e+01
 -8.71119989e+01 -8.58361739e+01 -8.48467849e+01 -8.42859587e+01
 -8.40914856e+01 -8.33560899e+01 -8.18475632e+01 -8.14466377e+01
 -8.14089062e+01 -8.10067480e+01 -8.08547762e+01 -8.04839138e+01
 -8.02515601e+01 -7.86319117e+01 -7.84173816e+01 -7.80515779e+01
 -7.63592934e+01 -7.50296954e+01 -7.48307224e+01 -7.41288702e+01
 -7.35268215e+01 -7.30055356e+01 -7.26136252e+01 -7.23199016e+01
 -7.10097190e+01 -7.02497554e+01 -6.98788242e+01 -6.90105689e+01
 -6.88032812e+01 -6.82574483e+01 -6.81709241e+01 -6.78589144e+01
 -6.77543594e+01 -6.77033281e+01 -6.58589998e+01 -6.53374190e+01
 -6.49762184e+01 -5.92349209e+01 -5.78572803e+01 -5.71589430e+01
 -5.50587300e+01 -5.45877794e+01 -5.38140519e+01 -5.23998422e+01
 -5.20708438e+01 -5.03190683e+01 -4.94482556e+01 -4.87197115e+01
 -4.55497329e+01 -4.52135310e+01 -4.44901949e+01 -4.39133519e+01
 -4.35323363e+01 -4.26845918e+01 -4.13106519e+01 -3.93647734e+01
 -3.84347912e+01 -3.72825558e+01 -3.64541601e+01 -3.63795012e+01
 -3.56366006e+01 -3.51896507e+01 -3.36956904e+01 -3.33480978e+01
 -2.77930868e+01 -2.71949370e+01 -2.63456513e+01 -2.26604777e+01
 -2.17096738e+01 -2.11615803e+01 -2.04180093e+01 -2.01425951e+01
 -2.01312764e+01 -2.00548875e+01 -1.87912468e+01 -1.74207898e+01
 -1.68901975e+01 -1.61143764e+01 -1.53629384e+01 -1.44711839e+01
 -1.39267768e+01 -1.12508710e+01 -7.28306957e+00 -6.03798033e+00
 -4.48405644e+00 -1.63608121e+00 -1.43319012e+00 -1.25215708e+00
 -5.72842125e-01  2.69474090e-01  8.48755488e-01  9.71479122e-01
  3.13137341e+00  4.09388103e+00  4.38318042e+00  6.23806049e+00
  6.84166284e+00  8.10954932e+00  8.62917691e+00  1.29952266e+01
  1.34336148e+01  1.51800256e+01  1.58979399e+01  1.65923688e+01
  1.89453788e+01  1.94910199e+01  1.94916920e+01  2.05305881e+01
  2.15104917e+01  2.41170029e+01  2.43710703e+01  2.58660332e+01
  2.60724768e+01  2.74672520e+01  2.75751580e+01  2.85285750e+01
  3.05892332e+01  3.27442577e+01  3.36843458e+01  3.37899159e+01
  3.41611587e+01  3.42153602e+01  3.48663961e+01  3.50530887e+01
  3.72456187e+01  3.99267393e+01  3.99602846e+01  4.23875378e+01
  4.39159825e+01  4.42327291e+01  4.48500197e+01  4.83776686e+01
  4.88736658e+01  5.05284149e+01  5.53688861e+01  5.56692378e+01
  5.66357258e+01  5.77674455e+01  5.78923918e+01  5.86309323e+01
  5.93436812e+01  6.02906417e+01  6.47458201e+01  6.49603340e+01
  6.68749790e+01  6.76039372e+01  6.78694515e+01  6.85395993e+01
  6.85552576e+01  6.99023624e+01  7.00722782e+01  7.10566011e+01
  7.18958063e+01  7.42631002e+01  7.64437617e+01  7.80250544e+01
  8.00743291e+01  8.04122550e+01  8.13002353e+01  8.18901469e+01
  8.32565101e+01  8.33459185e+01  8.87279953e+01  9.04900629e+01
  9.13388441e+01  9.22074020e+01  9.22656205e+01  9.30086833e+01
  9.30344412e+01  9.73584524e+01  9.78474792e+01  9.87173322e+01
  9.92848455e+01  1.01506611e+02  1.02399087e+02  1.03162159e+02
  1.03450957e+02  1.03768508e+02  1.04406383e+02  1.07092483e+02
  1.07710068e+02  1.11625387e+02  1.11924895e+02  1.13547690e+02
  1.14761007e+02  1.16179984e+02  1.16837433e+02  1.21326132e+02
  1.25537775e+02  1.33048584e+02  1.33573303e+02  1.36511921e+02
  1.37758285e+02  1.39131419e+02  1.41638120e+02  1.41844812e+02
  1.42424512e+02  1.43496609e+02  1.43510881e+02  1.46199060e+02
  1.46556236e+02  1.48407567e+02  1.48912536e+02  1.49165606e+02
  1.50802776e+02  1.51584630e+02  1.57633889e+02  1.57737232e+02
  1.58454369e+02  1.58956502e+02  1.63267115e+02  1.64188964e+02
  1.64960890e+02  1.66294281e+02  1.68205106e+02  1.68399273e+02
  1.69199237e+02  1.70621405e+02  1.71268575e+02  1.71509314e+02
  1.72966312e+02  1.74644664e+02  1.74710408e+02  1.79019423e+02
  1.81095791e+02  1.82868270e+02  1.82965600e+02  1.85354242e+02
  1.89562752e+02  1.89574834e+02  1.89672310e+02  1.91027077e+02
  2.01784542e+02  2.04149936e+02  2.04559881e+02  2.05267194e+02
  2.06118964e+02  2.08133270e+02  2.09294404e+02  2.09568207e+02
  2.10601509e+02  2.13399135e+02  2.14626304e+02  2.15422119e+02
  2.21445846e+02  2.22947849e+02  2.25145886e+02  2.26628167e+02
  2.28189327e+02  2.28893032e+02  2.33637454e+02  2.35044073e+02
  2.36284670e+02  2.36684500e+02  2.37351876e+02  2.37904515e+02
  2.39673843e+02  2.40087383e+02  2.40746217e+02  2.44455371e+02
  2.45745089e+02  2.47396543e+02  2.49133124e+02  2.50199516e+02
  2.50956709e+02  2.51005724e+02  2.52138755e+02  2.56224103e+02
  2.56233725e+02  2.57266362e+02  2.58179264e+02  2.60083093e+02
  2.60765499e+02  2.62492064e+02  2.63648761e+02  2.65056624e+02
  2.66105443e+02  2.66165893e+02  2.66358699e+02  2.66927189e+02
  2.73760950e+02  2.75046082e+02  2.76765168e+02  2.77043285e+02
  2.78210634e+02  2.78449570e+02  2.82206256e+02  2.82325028e+02
  2.84101176e+02  2.84932306e+02  2.86464187e+02  2.86772706e+02
  2.86931290e+02  2.87806515e+02  2.88479049e+02  2.88826115e+02
  2.89886738e+02  2.90633014e+02  2.90673531e+02  2.91437334e+02
  2.91755546e+02  2.92387265e+02  2.93628281e+02  2.94666653e+02
  2.94932601e+02  2.96188315e+02  2.96502288e+02  2.96822454e+02
  2.97975474e+02  2.98212430e+02  3.00668612e+02  3.01696582e+02
  3.01876822e+02  3.02112561e+02  3.03572646e+02  3.04409455e+02
  3.04449763e+02  3.06727103e+02  3.07812719e+02  3.08096964e+02
  3.10210664e+02  3.11984654e+02  3.12755351e+02  3.14574421e+02
  3.17861441e+02  3.19020009e+02  3.20094631e+02  3.20899374e+02
  3.21383177e+02  3.23073902e+02  3.23170946e+02  3.23359694e+02
  3.23678838e+02  3.24019798e+02  3.26023906e+02  3.26326863e+02
  3.27089227e+02  3.27093677e+02  3.29794865e+02  3.33040703e+02
  3.34824512e+02  3.34942982e+02  3.38064250e+02  3.41586114e+02
  3.42427604e+02  3.43392884e+02  3.45169167e+02  3.45467793e+02
  3.50754649e+02  3.51098770e+02  3.52589335e+02  3.52938639e+02
  3.53122732e+02  3.57327858e+02  3.57432774e+02  3.60404347e+02
  3.60494199e+02  3.61846267e+02  3.63639297e+02  3.65528706e+02
  3.66902709e+02  3.67026251e+02  3.67221496e+02  3.70665008e+02
  3.71474657e+02  3.72391756e+02  3.74044271e+02  3.75975458e+02
  3.76103509e+02  3.78576962e+02  3.79102861e+02  3.81301733e+02
  3.83305336e+02  3.84246014e+02  3.89847138e+02  3.89945653e+02
  3.90751718e+02  3.94941529e+02  3.96037631e+02  4.00041343e+02
  4.03137970e+02  4.06941403e+02  4.07718412e+02  4.13881992e+02
  4.14385640e+02  4.14433011e+02  4.15231967e+02  4.18896984e+02
  4.19530524e+02  4.20454152e+02  4.20949962e+02  4.23135587e+02
  4.29050163e+02  4.31102150e+02  4.34196834e+02  4.34808157e+02
  4.44554017e+02  4.45936030e+02  4.67300177e+02  4.73149208e+02]
sorted_val_rewards: [-133.97354737 -106.29807636 -106.26498585  -97.24485765  -78.93406316
  -65.00607092  -64.31517893  -63.24633649  -63.1014303   -57.66105273
  -56.30990465  -36.57284828  -34.92774699  -34.48765021  -29.59331475
  -21.77695065   -1.89633986    0.53212097    4.23223568    6.83923461
   19.62253484   27.01133577   55.12239522   55.92026357   65.16806407
   87.34870755  105.72097092  148.38223634  158.93814401  194.95027356
  199.51892684  209.04733791  224.80518376  242.29822404  247.42473325
  278.92635304  290.00250527  291.329522    306.38417501  317.59854966
  330.08344617  331.71313838  336.26436621  360.23062633  368.30963475
  368.8718416   370.49736551  373.90298986]
maximum traj length 200
maximum traj length 200
num train_obs 7140
num train_labels 7140
num val_obs 1128
num val_labels 1128
ModuleList(
  (0): Linear(in_features=19, out_features=128, bias=True)
  (1): Linear(in_features=128, out_features=64, bias=True)
  (2): Linear(in_features=64, out_features=1, bias=False)
)
Training reward model from scratch...
Total number of parameters: 10880
Number of trainable paramters: 10880
device: cuda:3
end of epoch 0: val_loss 0.2027077353658107, val_acc 0.9131205673758865
trigger times: 0
saving model weights...
end of epoch 1: val_loss 0.1838339472672568, val_acc 0.9113475177304965
trigger times: 0
saving model weights...
end of epoch 2: val_loss 0.19752316388970706, val_acc 0.9104609929078015
trigger times: 1
end of epoch 3: val_loss 0.18858205467267294, val_acc 0.9148936170212766
trigger times: 2
end of epoch 4: val_loss 0.1852635702601362, val_acc 0.9175531914893617
trigger times: 3
end of epoch 5: val_loss 0.19885700250568925, val_acc 0.9148936170212766
trigger times: 4
end of epoch 6: val_loss 0.19429145736634362, val_acc 0.9175531914893617
trigger times: 5
end of epoch 7: val_loss 0.21547338958707501, val_acc 0.9086879432624113
trigger times: 6
end of epoch 8: val_loss 0.20249424636877206, val_acc 0.9166666666666666
trigger times: 7
end of epoch 9: val_loss 0.20053181549989665, val_acc 0.9131205673758865
trigger times: 8
end of epoch 10: val_loss 0.22177284173727932, val_acc 0.9166666666666666
trigger times: 9
end of epoch 11: val_loss 0.20911801945679145, val_acc 0.9184397163120568
trigger times: 10
Early stopping.
0 -34.72144032269716 -133.973547371322
1 -30.899888575077057 -106.29807635708414
2 -27.53911940008402 -106.26498585222654
3 -29.616690084338188 -97.24485765376211
4 -28.77995255589485 -78.93406316283158
5 -25.10343310236931 -65.00607091797544
6 -26.132822720333934 -64.31517892724126
7 -26.742932192981243 -63.24633649146097
8 -22.711986253008945 -63.101430300225374
9 -25.91020866110921 -57.66105272983283
10 -25.10239427536726 -56.30990465208505
11 -20.899484030436724 -36.57284828127824
12 -16.833210790660814 -34.92774699423874
13 -21.196508403401822 -34.487650213835884
14 -15.45166629605228 -29.593314750499733
15 -19.438687820686027 -21.776950647506872
16 -20.508356563339476 -1.8963398599782397
17 -18.741108643822372 0.5321209736499255
18 -20.504434258909896 4.232235681838149
19 -16.93099313424318 6.8392346078963
20 -16.247053437808063 19.622534836185636
21 -18.378615649417043 27.01133577467053
22 -17.66093586414354 55.12239522211616
23 -13.273364780819975 55.92026357237822
24 -15.804570775013417 65.1680640695934
25 -12.633337327453773 87.3487075539824
26 -13.101847865327727 105.72097091834365
27 -14.109012044616975 148.38223634397093
28 -10.855938137392513 158.9381440127044
29 -9.643145221256418 194.9502735624309
30 -7.3209410527779255 199.51892684347123
31 -7.6600896454183385 209.04733790839154
32 -11.234164423658513 224.80518375748704
33 -7.6721926354803145 242.29822403524432
34 -9.264602584837121 247.4247332535776
35 -7.001982075016713 278.9263530439534
36 -2.9331985852622893 290.0025052732212
37 -10.275778761337278 291.32952200448
38 -3.7879044879809953 306.3841750088036
39 -7.764514816459268 317.59854966426605
40 -4.354012453259202 330.083446167866
41 -3.9276865898864344 331.71313838439016
42 -5.7257502459106036 336.2643662087101
43 -2.5617444964736933 360.2306263300218
44 -5.658129761257442 368.3096347545002
45 -7.759546491899528 368.87184160352797
46 -1.874745793378679 370.4973655070732
47 -5.654803240497131 373.9029898572837
train accuracy: 0.9659663865546219
validation accuracy: 0.9184397163120568
demos: (530, 200, 19)
demo_rewards: (530,)
sorted_train_rewards: [-1.68281407e+02 -1.47013414e+02 -1.45727567e+02 -1.42003591e+02
 -1.41254669e+02 -1.40092680e+02 -1.39123043e+02 -1.37881031e+02
 -1.36499697e+02 -1.33973547e+02 -1.32960105e+02 -1.31015560e+02
 -1.30975329e+02 -1.30124916e+02 -1.28708555e+02 -1.26440365e+02
 -1.25906495e+02 -1.25478067e+02 -1.24419490e+02 -1.23737226e+02
 -1.23216915e+02 -1.23114549e+02 -1.20065292e+02 -1.19526861e+02
 -1.18870716e+02 -1.18441257e+02 -1.17249924e+02 -1.17177977e+02
 -1.16491159e+02 -1.15454518e+02 -1.15100055e+02 -1.14763156e+02
 -1.14106000e+02 -1.14085096e+02 -1.12885489e+02 -1.11902348e+02
 -1.11179560e+02 -1.10805135e+02 -1.10579609e+02 -1.10248073e+02
 -1.10230585e+02 -1.09445874e+02 -1.07102963e+02 -1.06969949e+02
 -1.06516575e+02 -1.06298076e+02 -1.06264986e+02 -1.06225683e+02
 -1.06044562e+02 -1.05880618e+02 -1.04404699e+02 -1.03711882e+02
 -1.01565908e+02 -1.01169275e+02 -1.00495946e+02 -1.00348353e+02
 -9.98107665e+01 -9.90793890e+01 -9.88942217e+01 -9.79572956e+01
 -9.72448577e+01 -9.72257679e+01 -9.42721572e+01 -9.39936009e+01
 -9.08470847e+01 -8.99058909e+01 -8.98885408e+01 -8.98050349e+01
 -8.88554189e+01 -8.76650055e+01 -8.72724743e+01 -8.71119989e+01
 -8.62540624e+01 -8.58361739e+01 -8.45958101e+01 -8.40914856e+01
 -8.33560899e+01 -8.19754578e+01 -8.18475632e+01 -8.10067480e+01
 -8.08547762e+01 -8.04839138e+01 -8.02515601e+01 -7.89340632e+01
 -7.87973813e+01 -7.86319117e+01 -7.82016955e+01 -7.80515779e+01
 -7.63592934e+01 -7.58853783e+01 -7.50296954e+01 -7.41288702e+01
 -7.30055356e+01 -7.26136252e+01 -7.23199016e+01 -7.10097190e+01
 -7.02497554e+01 -6.98788242e+01 -6.90105689e+01 -6.88032812e+01
 -6.82574483e+01 -6.81709241e+01 -6.78589144e+01 -6.77543594e+01
 -6.77033281e+01 -6.58589998e+01 -6.53374190e+01 -6.50060709e+01
 -6.49762184e+01 -6.43151789e+01 -6.32463365e+01 -6.31014303e+01
 -5.92349209e+01 -5.76610527e+01 -5.71589430e+01 -5.63099047e+01
 -5.50587300e+01 -5.45877794e+01 -5.23998422e+01 -5.20708438e+01
 -4.94482556e+01 -4.87197115e+01 -4.55497329e+01 -4.52135310e+01
 -4.44901949e+01 -4.39133519e+01 -4.35323363e+01 -4.26845918e+01
 -4.13106519e+01 -3.93647734e+01 -3.84347912e+01 -3.72825558e+01
 -3.65728483e+01 -3.64541601e+01 -3.63795012e+01 -3.56366006e+01
 -3.51896507e+01 -3.49277470e+01 -3.44876502e+01 -3.36956904e+01
 -3.33480978e+01 -2.95933148e+01 -2.77930868e+01 -2.71949370e+01
 -2.26604777e+01 -2.17769506e+01 -2.11615803e+01 -2.04180093e+01
 -2.01425951e+01 -2.01312764e+01 -2.00548875e+01 -1.87912468e+01
 -1.74207898e+01 -1.68901975e+01 -1.61143764e+01 -1.53629384e+01
 -1.44711839e+01 -1.39267768e+01 -1.12508710e+01 -7.28306957e+00
 -6.03798033e+00 -4.48405644e+00 -1.63608121e+00 -1.43319012e+00
 -1.25215708e+00 -5.72842125e-01  2.69474090e-01  5.32120974e-01
  8.48755488e-01  3.13137341e+00  4.09388103e+00  4.23223568e+00
  4.38318042e+00  6.23806049e+00  6.83923461e+00  6.84166284e+00
  8.10954932e+00  8.62917691e+00  1.29952266e+01  1.34336148e+01
  1.51800256e+01  1.58979399e+01  1.65923688e+01  1.89453788e+01
  1.94910199e+01  1.94916920e+01  1.96225348e+01  2.05305881e+01
  2.15104917e+01  2.41170029e+01  2.43710703e+01  2.58660332e+01
  2.60724768e+01  2.70113358e+01  2.74672520e+01  2.75751580e+01
  2.85285750e+01  3.05892332e+01  3.27442577e+01  3.36843458e+01
  3.37899159e+01  3.41611587e+01  3.42153602e+01  3.48663961e+01
  3.50530887e+01  3.72456187e+01  3.99267393e+01  3.99602846e+01
  4.23875378e+01  4.39159825e+01  4.42327291e+01  4.48500197e+01
  4.83776686e+01  4.88736658e+01  5.51223952e+01  5.53688861e+01
  5.56692378e+01  5.59202636e+01  5.66357258e+01  5.78923918e+01
  5.93436812e+01  6.02906417e+01  6.47458201e+01  6.49603340e+01
  6.76039372e+01  6.78694515e+01  6.85395993e+01  6.85552576e+01
  7.00722782e+01  7.10566011e+01  7.18958063e+01  7.42631002e+01
  7.80250544e+01  8.00743291e+01  8.04122550e+01  8.13002353e+01
  8.18901469e+01  8.32565101e+01  8.33459185e+01  8.73487076e+01
  8.87279953e+01  9.04900629e+01  9.13388441e+01  9.22074020e+01
  9.22656205e+01  9.30086833e+01  9.30344412e+01  9.73584524e+01
  9.78474792e+01  9.87173322e+01  1.01506611e+02  1.02399087e+02
  1.03162159e+02  1.03450957e+02  1.03768508e+02  1.04406383e+02
  1.05720971e+02  1.07092483e+02  1.11625387e+02  1.11924895e+02
  1.13547690e+02  1.14761007e+02  1.16179984e+02  1.16837433e+02
  1.21326132e+02  1.25537775e+02  1.33048584e+02  1.33573303e+02
  1.36511921e+02  1.37758285e+02  1.39131419e+02  1.41638120e+02
  1.41844812e+02  1.42424512e+02  1.43496609e+02  1.43510881e+02
  1.46199060e+02  1.46556236e+02  1.48407567e+02  1.48912536e+02
  1.49165606e+02  1.50802776e+02  1.57633889e+02  1.57737232e+02
  1.58454369e+02  1.58938144e+02  1.58956502e+02  1.63267115e+02
  1.64188964e+02  1.64960890e+02  1.66294281e+02  1.68205106e+02
  1.68399273e+02  1.70621405e+02  1.71509314e+02  1.72966312e+02
  1.74644664e+02  1.74710408e+02  1.79019423e+02  1.81095791e+02
  1.82868270e+02  1.82965600e+02  1.85354242e+02  1.89562752e+02
  1.89574834e+02  1.89672310e+02  1.91027077e+02  1.94950274e+02
  2.04149936e+02  2.04559881e+02  2.05267194e+02  2.06118964e+02
  2.08133270e+02  2.09047338e+02  2.09294404e+02  2.10601509e+02
  2.13399135e+02  2.14626304e+02  2.15422119e+02  2.21445846e+02
  2.22947849e+02  2.24805184e+02  2.25145886e+02  2.26628167e+02
  2.28189327e+02  2.28893032e+02  2.33637454e+02  2.35044073e+02
  2.36284670e+02  2.36684500e+02  2.37351876e+02  2.37904515e+02
  2.39673843e+02  2.40087383e+02  2.40746217e+02  2.45745089e+02
  2.47396543e+02  2.47424733e+02  2.49133124e+02  2.50199516e+02
  2.50956709e+02  2.51005724e+02  2.52138755e+02  2.56233725e+02
  2.57266362e+02  2.58179264e+02  2.60083093e+02  2.60765499e+02
  2.62492064e+02  2.63648761e+02  2.65056624e+02  2.66105443e+02
  2.66165893e+02  2.66358699e+02  2.66927189e+02  2.73760950e+02
  2.75046082e+02  2.76765168e+02  2.77043285e+02  2.78210634e+02
  2.78449570e+02  2.78926353e+02  2.82206256e+02  2.82325028e+02
  2.84101176e+02  2.84932306e+02  2.86464187e+02  2.86772706e+02
  2.86931290e+02  2.87806515e+02  2.88479049e+02  2.88826115e+02
  2.89886738e+02  2.90002505e+02  2.90633014e+02  2.90673531e+02
  2.91329522e+02  2.91437334e+02  2.91755546e+02  2.92387265e+02
  2.93628281e+02  2.94666653e+02  2.94932601e+02  2.96188315e+02
  2.96502288e+02  2.96822454e+02  2.98212430e+02  3.00668612e+02
  3.01696582e+02  3.01876822e+02  3.02112561e+02  3.03572646e+02
  3.04409455e+02  3.04449763e+02  3.06727103e+02  3.07812719e+02
  3.08096964e+02  3.10210664e+02  3.11984654e+02  3.12755351e+02
  3.14574421e+02  3.17598550e+02  3.17861441e+02  3.19020009e+02
  3.20899374e+02  3.21383177e+02  3.23073902e+02  3.23359694e+02
  3.23678838e+02  3.24019798e+02  3.26023906e+02  3.27089227e+02
  3.27093677e+02  3.29794865e+02  3.31713138e+02  3.34824512e+02
  3.34942982e+02  3.36264366e+02  3.38064250e+02  3.41586114e+02
  3.42427604e+02  3.43392884e+02  3.45169167e+02  3.45467793e+02
  3.50754649e+02  3.51098770e+02  3.52589335e+02  3.52938639e+02
  3.53122732e+02  3.57327858e+02  3.57432774e+02  3.60230626e+02
  3.60404347e+02  3.60494199e+02  3.61846267e+02  3.63639297e+02
  3.65528706e+02  3.66902709e+02  3.67026251e+02  3.68871842e+02
  3.70497366e+02  3.70665008e+02  3.71474657e+02  3.72391756e+02
  3.73902990e+02  3.74044271e+02  3.75975458e+02  3.76103509e+02
  3.78576962e+02  3.81301733e+02  3.83305336e+02  3.84246014e+02
  3.89847138e+02  3.89945653e+02  3.90751718e+02  3.94941529e+02
  3.96037631e+02  4.00041343e+02  4.03137970e+02  4.06941403e+02
  4.07718412e+02  4.13881992e+02  4.14385640e+02  4.15231967e+02
  4.18896984e+02  4.19530524e+02  4.20454152e+02  4.20949962e+02
  4.23135587e+02  4.29050163e+02  4.31102150e+02  4.34196834e+02
  4.34808157e+02  4.44554017e+02  4.45936030e+02  4.67300177e+02
  4.73149208e+02]
sorted_val_rewards: [-118.26451859 -118.08938857 -115.27865235 -104.78900269 -103.15213887
  -96.05813977  -94.75279234  -89.21931257  -84.84678494  -84.28595871
  -81.44663773  -81.40890617  -78.41738158  -74.83072244  -73.52682146
  -65.15917851  -57.85728026  -53.81405192  -50.31906834  -26.34565134
  -21.70967377   -1.89633986    0.97147912   50.52841486   57.7674455
   58.63093231   65.16806407   66.87497899   69.90236244   76.4437617
   99.28484545  107.71006782  148.38223634  151.58462983  169.19923675
  171.268575    199.51892684  201.78454217  209.56820738  242.29822404
  244.45537109  256.22410276  297.97547363  306.38417501  320.09463125
  323.17094558  326.32686278  330.08344617  333.04070292  367.2214958
  368.30963475  379.10286123  414.4330114 ]
maximum traj length 200
maximum traj length 200
num train_obs 7140
num train_labels 7140
num val_obs 1378
num val_labels 1378
ModuleList(
  (0): Linear(in_features=19, out_features=128, bias=True)
  (1): Linear(in_features=128, out_features=64, bias=True)
  (2): Linear(in_features=64, out_features=1, bias=False)
)
Training reward model from scratch...
Total number of parameters: 10880
Number of trainable paramters: 10880
device: cuda:2
end of epoch 0: val_loss 0.24510043183180685, val_acc 0.8991291727140783
trigger times: 0
saving model weights...
end of epoch 1: val_loss 0.2145139669749671, val_acc 0.9100145137880987
trigger times: 0
saving model weights...
end of epoch 2: val_loss 0.2244892583376679, val_acc 0.9165457184325109
trigger times: 1
end of epoch 3: val_loss 0.2658993182876852, val_acc 0.9107402031930334
trigger times: 2
end of epoch 4: val_loss 0.21662025254845377, val_acc 0.920899854862119
trigger times: 3
end of epoch 5: val_loss 0.2865204239993183, val_acc 0.9078374455732946
trigger times: 4
end of epoch 6: val_loss 0.24823008699348492, val_acc 0.9165457184325109
trigger times: 5
end of epoch 7: val_loss 0.269771274990693, val_acc 0.918722786647315
trigger times: 6
end of epoch 8: val_loss 0.28065098123569643, val_acc 0.9143686502177069
trigger times: 7
end of epoch 9: val_loss 0.24834333900955183, val_acc 0.9165457184325109
trigger times: 8
end of epoch 10: val_loss 0.26135616334065853, val_acc 0.918722786647315
trigger times: 9
end of epoch 11: val_loss 0.2625028501096908, val_acc 0.9129172714078374
trigger times: 10
Early stopping.
0 -30.002262678928673 -118.26451858763384
1 -23.191945615340956 -118.08938857029733
2 -27.443319149315357 -115.27865235069261
3 -23.271468962542713 -104.78900268993728
4 -23.847207745537162 -103.1521388660611
5 -24.78034547716379 -96.05813976775474
6 -25.215806644409895 -94.75279234305356
7 -23.851423639338464 -89.2193125744635
8 -20.525501757860184 -84.84678494475872
9 -19.75011777272448 -84.28595870565519
10 -19.8874168433249 -81.44663773131116
11 -20.07533122599125 -81.40890616600856
12 -22.987713322916534 -78.41738157747275
13 -19.465053394436836 -74.83072243647564
14 -30.398623047862202 -73.52682146291956
15 -21.657771473401226 -65.15917851473925
16 -19.800998761318624 -57.85728026156094
17 -23.86853085795883 -53.814051919860674
18 -18.122607049532235 -50.319068336803426
19 -16.74028839787934 -26.345651336981703
20 -15.001138375198934 -21.70967376674228
21 -15.638326003216207 -1.8963398599782397
22 -15.327220058185048 0.971479121789783
23 -12.862638392398367 50.52841485696464
24 -13.613191444892436 57.76744549995627
25 -11.238725359551609 58.63093231433321
26 -12.575347242876887 65.1680640695934
27 -4.934788782877149 66.874978985273
28 -11.296471606940031 69.90236244353298
29 -10.34673709369963 76.44376170061236
30 -13.893169667338952 99.28484545080774
31 -9.917345118301455 107.71006781863467
32 -8.67123553052079 148.38223634397093
33 -11.510986435168888 151.58462983224345
34 -9.540179179632105 169.19923674906562
35 -7.644058146281168 171.268574997029
36 -3.43201779195806 199.51892684347123
37 -7.1010631522512995 201.78454217291116
38 -5.56393612397369 209.56820737620916
39 -2.9714066007290967 242.29822403524432
40 -6.586871656880248 244.45537108939513
41 -1.9319234618742485 256.22410276039744
42 -3.578071168565657 297.9754736289928
43 -0.9847504233766813 306.3841750088036
44 -2.2435750056174584 320.0946312511725
45 -4.171012784121558 323.17094557576416
46 -1.6192092707497068 326.32686277937813
47 -2.135109532275237 330.083446167866
48 -1.0094101037102519 333.0407029156643
49 -0.3595259682042524 367.22149580400503
50 -0.44510767595784273 368.3096347545002
51 -3.6594197030644864 379.10286122789245
52 -1.6723856655880809 414.43301139651703
train accuracy: 0.9684873949579832
validation accuracy: 0.9129172714078374
demos: (580, 200, 19)
demo_rewards: (580,)
sorted_train_rewards: [-1.68281407e+02 -1.47013414e+02 -1.45727567e+02 -1.42003591e+02
 -1.39123043e+02 -1.37881031e+02 -1.36499697e+02 -1.33973547e+02
 -1.32960105e+02 -1.31015560e+02 -1.30975329e+02 -1.30124916e+02
 -1.26440365e+02 -1.25478067e+02 -1.24419490e+02 -1.23737226e+02
 -1.23216915e+02 -1.23114549e+02 -1.20065292e+02 -1.19526861e+02
 -1.18870716e+02 -1.18441257e+02 -1.18264519e+02 -1.18089389e+02
 -1.17249924e+02 -1.17177977e+02 -1.16491159e+02 -1.14763156e+02
 -1.14106000e+02 -1.14085096e+02 -1.12885489e+02 -1.11902348e+02
 -1.10805135e+02 -1.10579609e+02 -1.10248073e+02 -1.10230585e+02
 -1.08512208e+02 -1.07102963e+02 -1.06969949e+02 -1.06516575e+02
 -1.06298076e+02 -1.06264986e+02 -1.06225683e+02 -1.06044562e+02
 -1.05880618e+02 -1.04789003e+02 -1.04404699e+02 -1.03711882e+02
 -1.03152139e+02 -1.01565908e+02 -1.01169275e+02 -1.00495946e+02
 -1.00348353e+02 -9.98107665e+01 -9.90793890e+01 -9.88942217e+01
 -9.79572956e+01 -9.72448577e+01 -9.72257679e+01 -9.60581398e+01
 -9.47527923e+01 -9.42721572e+01 -9.39936009e+01 -9.32484161e+01
 -9.08470847e+01 -8.99058909e+01 -8.98050349e+01 -8.92193126e+01
 -8.88554189e+01 -8.76650055e+01 -8.72724743e+01 -8.71119989e+01
 -8.62540624e+01 -8.58361739e+01 -8.48467849e+01 -8.45958101e+01
 -8.42859587e+01 -8.40914856e+01 -8.33560899e+01 -8.19754578e+01
 -8.18475632e+01 -8.17728775e+01 -8.14466377e+01 -8.14089062e+01
 -8.10067480e+01 -8.08547762e+01 -8.04839138e+01 -8.02515601e+01
 -7.89340632e+01 -7.86319117e+01 -7.84173816e+01 -7.80515779e+01
 -7.72658270e+01 -7.63592934e+01 -7.61340313e+01 -7.58853783e+01
 -7.50296954e+01 -7.48307224e+01 -7.41288702e+01 -7.35268215e+01
 -7.30055356e+01 -7.26136252e+01 -7.23199016e+01 -7.02497554e+01
 -6.98788242e+01 -6.90105689e+01 -6.88032812e+01 -6.87252754e+01
 -6.82574483e+01 -6.81709241e+01 -6.80284134e+01 -6.78589144e+01
 -6.77543594e+01 -6.77033281e+01 -6.58589998e+01 -6.53374190e+01
 -6.50060709e+01 -6.49762184e+01 -6.48000001e+01 -6.41459702e+01
 -6.39675921e+01 -6.32463365e+01 -6.31014303e+01 -6.18547033e+01
 -5.92425420e+01 -5.92349209e+01 -5.78572803e+01 -5.76610527e+01
 -5.74325097e+01 -5.71589430e+01 -5.68119613e+01 -5.63099047e+01
 -5.62447109e+01 -5.61469596e+01 -5.60478288e+01 -5.50587300e+01
 -5.45877794e+01 -5.38140519e+01 -5.29660894e+01 -5.23998422e+01
 -5.21451496e+01 -5.20708438e+01 -5.03190683e+01 -4.94482556e+01
 -4.70878557e+01 -4.64023367e+01 -4.55497329e+01 -4.52135310e+01
 -4.44901949e+01 -4.40898814e+01 -4.39133519e+01 -4.35323363e+01
 -4.28434398e+01 -4.26845918e+01 -4.24650695e+01 -4.06303312e+01
 -4.01019686e+01 -3.93647734e+01 -3.84572529e+01 -3.84347912e+01
 -3.72825558e+01 -3.71596379e+01 -3.64541601e+01 -3.63795012e+01
 -3.56366006e+01 -3.51896507e+01 -3.49277470e+01 -3.46164067e+01
 -3.44876502e+01 -3.40829164e+01 -3.37931541e+01 -3.36956904e+01
 -3.33480978e+01 -3.15878578e+01 -3.14993398e+01 -3.11127756e+01
 -3.08318981e+01 -3.01277106e+01 -2.93762808e+01 -2.91286017e+01
 -2.89076751e+01 -2.85132263e+01 -2.83414700e+01 -2.82969893e+01
 -2.78134489e+01 -2.77930868e+01 -2.71949370e+01 -2.63456513e+01
 -2.45199833e+01 -2.26604777e+01 -2.17769506e+01 -2.17096738e+01
 -2.11615803e+01 -2.04180093e+01 -2.01425951e+01 -2.01312764e+01
 -2.00548875e+01 -1.87912468e+01 -1.74207898e+01 -1.68901975e+01
 -1.61143764e+01 -1.53629384e+01 -1.44711839e+01 -1.39267768e+01
 -1.12508710e+01 -7.28306957e+00 -6.03798033e+00 -1.63608121e+00
 -1.43319012e+00 -1.25215708e+00 -1.12054670e+00 -5.72842125e-01
  2.69474090e-01  9.71479122e-01  3.13137341e+00  4.09388103e+00
  4.23223568e+00  4.38318042e+00  6.23806049e+00  6.84166284e+00
  8.10954932e+00  8.62917691e+00  1.29952266e+01  1.34336148e+01
  1.51800256e+01  1.58979399e+01  1.65923688e+01  1.94910199e+01
  1.94916920e+01  1.96225348e+01  2.05305881e+01  2.15104917e+01
  2.41170029e+01  2.43710703e+01  2.58660332e+01  2.60724768e+01
  2.70113358e+01  2.74672520e+01  2.75751580e+01  2.85285750e+01
  3.05892332e+01  3.27442577e+01  3.36843458e+01  3.37899159e+01
  3.41611587e+01  3.42153602e+01  3.48663961e+01  3.50530887e+01
  3.72456187e+01  3.99602846e+01  4.23875378e+01  4.39159825e+01
  4.42327291e+01  4.83776686e+01  4.88736658e+01  5.51223952e+01
  5.53688861e+01  5.56692378e+01  5.59202636e+01  5.66357258e+01
  5.77674455e+01  5.78923918e+01  5.86309323e+01  5.93436812e+01
  6.02906417e+01  6.47458201e+01  6.49603340e+01  6.51680641e+01
  6.68749790e+01  6.76039372e+01  6.78694515e+01  6.85395993e+01
  6.85552576e+01  7.00722782e+01  7.10566011e+01  7.18958063e+01
  7.64437617e+01  7.80250544e+01  8.00743291e+01  8.04122550e+01
  8.13002353e+01  8.18901469e+01  8.32565101e+01  8.33459185e+01
  8.73487076e+01  8.87279953e+01  9.04900629e+01  9.13388441e+01
  9.22074020e+01  9.22656205e+01  9.30086833e+01  9.30344412e+01
  9.73584524e+01  9.78474792e+01  9.87173322e+01  9.92848455e+01
  1.01506611e+02  1.02399087e+02  1.03162159e+02  1.03450957e+02
  1.04406383e+02  1.05720971e+02  1.07092483e+02  1.07710068e+02
  1.11625387e+02  1.11924895e+02  1.13547690e+02  1.14761007e+02
  1.16179984e+02  1.16837433e+02  1.21326132e+02  1.25537775e+02
  1.33573303e+02  1.36511921e+02  1.37758285e+02  1.39131419e+02
  1.41638120e+02  1.41844812e+02  1.42424512e+02  1.43496609e+02
  1.43510881e+02  1.46199060e+02  1.46556236e+02  1.48382236e+02
  1.48407567e+02  1.48912536e+02  1.50802776e+02  1.51584630e+02
  1.57737232e+02  1.58454369e+02  1.58956502e+02  1.63267115e+02
  1.66294281e+02  1.68205106e+02  1.68399273e+02  1.69199237e+02
  1.70621405e+02  1.71268575e+02  1.71509314e+02  1.72966312e+02
  1.74644664e+02  1.79019423e+02  1.81095791e+02  1.82965600e+02
  1.85354242e+02  1.89562752e+02  1.89574834e+02  1.89672310e+02
  1.91027077e+02  1.94950274e+02  1.99518927e+02  2.01784542e+02
  2.04149936e+02  2.05267194e+02  2.06118964e+02  2.08133270e+02
  2.09047338e+02  2.09294404e+02  2.09568207e+02  2.10601509e+02
  2.13399135e+02  2.14626304e+02  2.15422119e+02  2.21445846e+02
  2.22947849e+02  2.24805184e+02  2.25145886e+02  2.26628167e+02
  2.28189327e+02  2.28893032e+02  2.33637454e+02  2.35044073e+02
  2.36284670e+02  2.36684500e+02  2.37351876e+02  2.37904515e+02
  2.39673843e+02  2.40087383e+02  2.40746217e+02  2.42298224e+02
  2.44455371e+02  2.45745089e+02  2.47396543e+02  2.47424733e+02
  2.49133124e+02  2.50199516e+02  2.50956709e+02  2.51005724e+02
  2.52138755e+02  2.56224103e+02  2.56233725e+02  2.57266362e+02
  2.58179264e+02  2.60083093e+02  2.60765499e+02  2.62492064e+02
  2.63648761e+02  2.65056624e+02  2.66105443e+02  2.66165893e+02
  2.66927189e+02  2.73760950e+02  2.75046082e+02  2.76765168e+02
  2.77043285e+02  2.78210634e+02  2.78449570e+02  2.78926353e+02
  2.82206256e+02  2.82325028e+02  2.84101176e+02  2.84932306e+02
  2.86464187e+02  2.86772706e+02  2.87806515e+02  2.88479049e+02
  2.88826115e+02  2.89886738e+02  2.90002505e+02  2.90633014e+02
  2.90673531e+02  2.91329522e+02  2.91437334e+02  2.91755546e+02
  2.92387265e+02  2.93628281e+02  2.94666653e+02  2.94932601e+02
  2.96188315e+02  2.96502288e+02  2.96822454e+02  2.97975474e+02
  2.98212430e+02  3.01696582e+02  3.01876822e+02  3.02112561e+02
  3.03572646e+02  3.04409455e+02  3.04449763e+02  3.06384175e+02
  3.06727103e+02  3.07812719e+02  3.08096964e+02  3.10210664e+02
  3.11984654e+02  3.12755351e+02  3.14574421e+02  3.17598550e+02
  3.17861441e+02  3.19020009e+02  3.20094631e+02  3.20899374e+02
  3.21383177e+02  3.23073902e+02  3.23170946e+02  3.23359694e+02
  3.23678838e+02  3.24019798e+02  3.26023906e+02  3.26326863e+02
  3.27089227e+02  3.27093677e+02  3.29794865e+02  3.33040703e+02
  3.34824512e+02  3.34942982e+02  3.36264366e+02  3.38064250e+02
  3.41586114e+02  3.42427604e+02  3.43392884e+02  3.45169167e+02
  3.45467793e+02  3.51098770e+02  3.52589335e+02  3.52938639e+02
  3.53122732e+02  3.57327858e+02  3.57432774e+02  3.60404347e+02
  3.60494199e+02  3.61846267e+02  3.63639297e+02  3.65528706e+02
  3.66902709e+02  3.67026251e+02  3.67221496e+02  3.68871842e+02
  3.70497366e+02  3.70665008e+02  3.71474657e+02  3.72391756e+02
  3.73902990e+02  3.74044271e+02  3.75975458e+02  3.76103509e+02
  3.78576962e+02  3.79102861e+02  3.81301733e+02  3.83305336e+02
  3.84246014e+02  3.89945653e+02  3.90751718e+02  3.94941529e+02
  3.96037631e+02  4.00041343e+02  4.06941403e+02  4.07718412e+02
  4.13881992e+02  4.15231967e+02  4.18896984e+02  4.19530524e+02
  4.20454152e+02  4.20949962e+02  4.23135587e+02  4.29050163e+02
  4.31102150e+02  4.34196834e+02  4.34808157e+02  4.44554017e+02
  4.45936030e+02  4.73149208e+02]
sorted_val_rewards: [-141.25466944 -140.09268009 -128.70855473 -125.90649512 -115.45451791
 -115.27865235 -115.10005468 -111.17956009 -109.44587409  -91.68238898
  -89.88854084  -82.05186934  -78.79738131  -78.20169549  -71.00971899
  -65.15917851  -64.31517893  -56.01216374  -48.7197115   -41.56011429
  -41.31065187  -36.57284828  -36.42017206  -29.59331475   -4.48405644
   -1.89633986    0.53212097    0.84875549    6.83923461   18.94537882
   39.92673927   44.8500197    50.52841486   69.90236244   74.26310022
  103.76850791  133.04858367  149.16560554  157.63388866  158.93814401
  164.18896384  164.96088965  174.7104084   182.86827014  204.55988076
  266.35869922  286.93129032  300.66861177  330.08344617  331.71313838
  350.75464928  360.23062633  368.30963475  389.84713814  403.13796959
  414.38564019  414.4330114   467.30017704]
maximum traj length 200
maximum traj length 200
num train_obs 7140
num train_labels 7140
num val_obs 1653
num val_labels 1653
ModuleList(
  (0): Linear(in_features=19, out_features=128, bias=True)
  (1): Linear(in_features=128, out_features=64, bias=True)
  (2): Linear(in_features=64, out_features=1, bias=False)
)
Training reward model from scratch...
Total number of parameters: 10880
Number of trainable paramters: 10880
device: cuda:3
end of epoch 0: val_loss 0.21029149080398102, val_acc 0.9207501512401693
trigger times: 0
saving model weights...
end of epoch 1: val_loss 0.17480696347156155, val_acc 0.9195402298850575
trigger times: 0
saving model weights...
end of epoch 2: val_loss 0.14839490355553708, val_acc 0.9328493647912885
trigger times: 0
saving model weights...
end of epoch 3: val_loss 0.14271526579961308, val_acc 0.9352692075015124
trigger times: 0
saving model weights...
end of epoch 4: val_loss 0.13659029344997087, val_acc 0.9370840895341803
trigger times: 0
saving model weights...
end of epoch 5: val_loss 0.13388576728254883, val_acc 0.9431336963097399
trigger times: 0
saving model weights...
end of epoch 6: val_loss 0.1323535314779962, val_acc 0.9376890502117362
trigger times: 0
saving model weights...
end of epoch 7: val_loss 0.1463160182915547, val_acc 0.9370840895341803
trigger times: 1
end of epoch 8: val_loss 0.11935610457620753, val_acc 0.9473684210526315
trigger times: 0
saving model weights...
end of epoch 9: val_loss 0.12952735660474066, val_acc 0.9437386569872959
trigger times: 1
end of epoch 10: val_loss 0.1282886739774292, val_acc 0.9461584996975196
trigger times: 2
end of epoch 11: val_loss 0.12262834325445962, val_acc 0.9455535390199638
trigger times: 3
end of epoch 12: val_loss 0.12525336537805973, val_acc 0.9485783424077435
trigger times: 4
end of epoch 13: val_loss 0.12632929151882874, val_acc 0.9455535390199638
trigger times: 5
end of epoch 14: val_loss 0.1301287162920968, val_acc 0.9443436176648518
trigger times: 6
end of epoch 15: val_loss 0.12984282464922237, val_acc 0.941923774954628
trigger times: 7
end of epoch 16: val_loss 0.12185507800366117, val_acc 0.9491833030852994
trigger times: 8
end of epoch 17: val_loss 0.1257127024258821, val_acc 0.9473684210526315
trigger times: 9
end of epoch 18: val_loss 0.1363282897794953, val_acc 0.941318814277072
trigger times: 10
Early stopping.
0 -35.544515986926854 -141.2546694417987
1 -28.73245181934908 -140.09268009408567
2 -34.0249568647705 -128.70855472693918
3 -33.09332348406315 -125.90649512105452
4 -31.156882669776678 -115.4545179094371
5 -29.813217762857676 -115.27865235069261
6 -28.290906127542257 -115.10005467921721
7 -29.147904973477125 -111.1795600852603
8 -28.715412277029827 -109.44587408588339
9 -22.58752935938537 -91.6823889813243
10 -25.987940734892618 -89.88854084032519
11 -22.93595452234149 -82.05186933648251
12 -23.8282274302328 -78.79738130689596
13 -25.20040648037684 -78.20169549348978
14 -22.04325184226036 -71.0097189898932
15 -26.244269349379465 -65.15917851473925
16 -25.19009483186528 -64.31517892724126
17 -23.011695264838636 -56.01216374074234
18 -19.77516020112671 -48.71971149808798
19 -19.435723322909325 -41.56011428977153
20 -19.79535664571449 -41.3106518668958
21 -15.981418319512159 -36.57284828127824
22 -20.04861233563861 -36.420172064720774
23 -13.44140415173024 -29.593314750499733
24 -17.310758904437535 -4.4840564393316305
25 -17.915522627474274 -1.8963398599782397
26 -15.910698958206922 0.5321209736499255
27 -17.200082768133143 0.8487554879327812
28 -13.436858768109232 6.8392346078963
29 -16.024221044033766 18.945378815659346
30 -13.877339631784707 39.92673927109536
31 -16.06985440175049 44.850019698054204
32 -14.900724091101438 50.52841485696464
33 -12.321859720395878 69.90236244353298
34 -14.32294629397802 74.26310022402075
35 -13.645849450258538 103.76850790553507
36 -11.921040532644838 133.04858367101036
37 -7.707790109328926 149.16560553618203
38 -11.506837751541752 157.63388865862527
39 -9.085647396903369 158.9381440127044
40 -10.463011157728033 164.18896384382953
41 -11.126047811470926 164.96088964947137
42 -6.130486939800903 174.7104083975865
43 -9.134793456294574 182.8682701433281
44 -8.752901686122641 204.5598807600962
45 -3.6179162637563422 266.3586992205008
46 -5.625538143329322 286.93129032263715
47 -4.94522373896325 300.668611768182
48 -3.4279252470005304 330.083446167866
49 -1.3632990507758223 331.71313838439016
50 -1.2024614043766633 350.75464928107647
51 -3.1997571317479014 360.2306263300218
52 -1.6500100223056506 368.3096347545002
53 -3.397442804882303 389.8471381383487
54 -3.020881658536382 403.13796958654353
55 -1.9354612763272598 414.3856401909296
56 -2.7474815081222914 414.43301139651703
57 -1.2536335781333037 467.300177037188
train accuracy: 0.9705882352941176
validation accuracy: 0.941318814277072
demos: (630, 200, 19)
demo_rewards: (630,)
sorted_train_rewards: [-1.68281407e+02 -1.47013414e+02 -1.45727567e+02 -1.41254669e+02
 -1.40092680e+02 -1.39123043e+02 -1.37881031e+02 -1.36499697e+02
 -1.33973547e+02 -1.30975329e+02 -1.28708555e+02 -1.26440365e+02
 -1.25478067e+02 -1.24419490e+02 -1.23737226e+02 -1.23216915e+02
 -1.23114549e+02 -1.20065292e+02 -1.19526861e+02 -1.18870716e+02
 -1.18441257e+02 -1.18264519e+02 -1.18089389e+02 -1.17249924e+02
 -1.17177977e+02 -1.16491159e+02 -1.15454518e+02 -1.15278652e+02
 -1.15100055e+02 -1.14763156e+02 -1.14106000e+02 -1.14085096e+02
 -1.12885489e+02 -1.11902348e+02 -1.11179560e+02 -1.10805135e+02
 -1.10579609e+02 -1.10248073e+02 -1.10230585e+02 -1.08512208e+02
 -1.07102963e+02 -1.06969949e+02 -1.06516575e+02 -1.06298076e+02
 -1.06264986e+02 -1.06225683e+02 -1.06044562e+02 -1.04789003e+02
 -1.04404699e+02 -1.03711882e+02 -1.03152139e+02 -1.01565908e+02
 -1.01169275e+02 -1.00495946e+02 -1.00348353e+02 -9.98107665e+01
 -9.90793890e+01 -9.88942217e+01 -9.79572956e+01 -9.75439422e+01
 -9.72448577e+01 -9.72257679e+01 -9.60581398e+01 -9.42721572e+01
 -9.39936009e+01 -9.32484161e+01 -9.16823890e+01 -9.08470847e+01
 -8.99058909e+01 -8.98885408e+01 -8.98050349e+01 -8.92193126e+01
 -8.88554189e+01 -8.85564623e+01 -8.76650055e+01 -8.71119989e+01
 -8.62540624e+01 -8.58361739e+01 -8.51226475e+01 -8.48467849e+01
 -8.45958101e+01 -8.45392988e+01 -8.42859587e+01 -8.41138390e+01
 -8.40914856e+01 -8.35881681e+01 -8.33560899e+01 -8.27123853e+01
 -8.22083602e+01 -8.20518693e+01 -8.18475632e+01 -8.17728775e+01
 -8.14466377e+01 -8.08547762e+01 -8.04839138e+01 -8.02948781e+01
 -8.02515601e+01 -8.00780476e+01 -8.00583471e+01 -7.97844841e+01
 -7.87973813e+01 -7.86319117e+01 -7.85266366e+01 -7.84173816e+01
 -7.83277636e+01 -7.83082660e+01 -7.82465496e+01 -7.82016955e+01
 -7.80515779e+01 -7.77859358e+01 -7.75778370e+01 -7.72879900e+01
 -7.72658270e+01 -7.63592934e+01 -7.63473724e+01 -7.58853783e+01
 -7.56631849e+01 -7.52856657e+01 -7.48307224e+01 -7.47751836e+01
 -7.43514152e+01 -7.42093893e+01 -7.36478915e+01 -7.35268215e+01
 -7.30436384e+01 -7.30367675e+01 -7.30055356e+01 -7.28643507e+01
 -7.27425108e+01 -7.26136252e+01 -7.26066340e+01 -7.23302067e+01
 -7.23199016e+01 -7.18162655e+01 -7.15554191e+01 -7.14726179e+01
 -7.10097190e+01 -7.02497554e+01 -7.02359873e+01 -6.98788242e+01
 -6.98583271e+01 -6.97645737e+01 -6.96636235e+01 -6.95829887e+01
 -6.94583092e+01 -6.88032812e+01 -6.87252754e+01 -6.85756081e+01
 -6.82574483e+01 -6.81709241e+01 -6.80284134e+01 -6.79574881e+01
 -6.77543594e+01 -6.77033281e+01 -6.62387938e+01 -6.58589998e+01
 -6.55230979e+01 -6.53374190e+01 -6.51591785e+01 -6.50060709e+01
 -6.43151789e+01 -6.41459702e+01 -6.39675921e+01 -6.32463365e+01
 -6.31014303e+01 -6.30656737e+01 -6.18547033e+01 -6.00931470e+01
 -5.93059716e+01 -5.92425420e+01 -5.92349209e+01 -5.80862675e+01
 -5.78572803e+01 -5.76610527e+01 -5.74325097e+01 -5.71589430e+01
 -5.68119613e+01 -5.63099047e+01 -5.62447109e+01 -5.61469596e+01
 -5.60478288e+01 -5.60121637e+01 -5.50587300e+01 -5.45877794e+01
 -5.38140519e+01 -5.29660894e+01 -5.23998422e+01 -5.21451496e+01
 -5.20708438e+01 -4.94482556e+01 -4.87197115e+01 -4.70878557e+01
 -4.64023367e+01 -4.55497329e+01 -4.52135310e+01 -4.40898814e+01
 -4.39133519e+01 -4.35323363e+01 -4.28434398e+01 -4.26845918e+01
 -4.24650695e+01 -4.15601143e+01 -4.13106519e+01 -4.06303312e+01
 -4.01019686e+01 -3.93647734e+01 -3.84572529e+01 -3.84347912e+01
 -3.71596379e+01 -3.65728483e+01 -3.64541601e+01 -3.64201721e+01
 -3.56366006e+01 -3.51896507e+01 -3.49277470e+01 -3.46164067e+01
 -3.44876502e+01 -3.40829164e+01 -3.37931541e+01 -3.36956904e+01
 -3.33480978e+01 -3.15878578e+01 -3.14993398e+01 -3.11127756e+01
 -3.08318981e+01 -3.01277106e+01 -2.95933148e+01 -2.93762808e+01
 -2.91286017e+01 -2.89076751e+01 -2.85132263e+01 -2.83414700e+01
 -2.82969893e+01 -2.78134489e+01 -2.77930868e+01 -2.71949370e+01
 -2.63456513e+01 -2.45199833e+01 -2.26604777e+01 -2.17769506e+01
 -2.17096738e+01 -2.11615803e+01 -2.01425951e+01 -2.01312764e+01
 -2.00548875e+01 -1.87912468e+01 -1.74207898e+01 -1.68901975e+01
 -1.61143764e+01 -1.53629384e+01 -1.39267768e+01 -1.12508710e+01
 -7.28306957e+00 -6.03798033e+00 -4.48405644e+00 -1.89633986e+00
 -1.63608121e+00 -1.43319012e+00 -1.25215708e+00 -1.12054670e+00
 -5.72842125e-01  2.69474090e-01  5.32120974e-01  8.48755488e-01
  3.13137341e+00  4.09388103e+00  4.23223568e+00  4.38318042e+00
  6.23806049e+00  6.83923461e+00  6.84166284e+00  8.10954932e+00
  8.62917691e+00  1.29952266e+01  1.34336148e+01  1.51800256e+01
  1.58979399e+01  1.65923688e+01  1.89453788e+01  1.94910199e+01
  1.94916920e+01  2.05305881e+01  2.15104917e+01  2.41170029e+01
  2.43710703e+01  2.58660332e+01  2.60724768e+01  2.70113358e+01
  2.75751580e+01  2.85285750e+01  3.05892332e+01  3.27442577e+01
  3.36843458e+01  3.37899159e+01  3.41611587e+01  3.42153602e+01
  3.48663961e+01  3.50530887e+01  3.72456187e+01  3.99267393e+01
  3.99602846e+01  4.23875378e+01  4.42327291e+01  4.83776686e+01
  4.88736658e+01  5.05284149e+01  5.51223952e+01  5.53688861e+01
  5.56692378e+01  5.59202636e+01  5.66357258e+01  5.77674455e+01
  5.86309323e+01  5.93436812e+01  6.02906417e+01  6.47458201e+01
  6.49603340e+01  6.51680641e+01  6.76039372e+01  6.78694515e+01
  6.85395993e+01  6.85552576e+01  6.99023624e+01  7.00722782e+01
  7.18958063e+01  7.42631002e+01  7.64437617e+01  7.80250544e+01
  8.00743291e+01  8.04122550e+01  8.13002353e+01  8.18901469e+01
  8.32565101e+01  8.33459185e+01  8.73487076e+01  8.87279953e+01
  9.04900629e+01  9.13388441e+01  9.22074020e+01  9.22656205e+01
  9.30086833e+01  9.73584524e+01  9.78474792e+01  9.87173322e+01
  9.92848455e+01  1.01506611e+02  1.02399087e+02  1.03162159e+02
  1.03450957e+02  1.03768508e+02  1.04406383e+02  1.07092483e+02
  1.07710068e+02  1.11625387e+02  1.11924895e+02  1.13547690e+02
  1.14761007e+02  1.16179984e+02  1.16837433e+02  1.21326132e+02
  1.25537775e+02  1.33048584e+02  1.33573303e+02  1.36511921e+02
  1.37758285e+02  1.39131419e+02  1.41638120e+02  1.41844812e+02
  1.43496609e+02  1.46199060e+02  1.46556236e+02  1.48382236e+02
  1.48407567e+02  1.48912536e+02  1.49165606e+02  1.50802776e+02
  1.51584630e+02  1.57633889e+02  1.57737232e+02  1.58454369e+02
  1.58956502e+02  1.64188964e+02  1.64960890e+02  1.66294281e+02
  1.70621405e+02  1.71268575e+02  1.71509314e+02  1.72966312e+02
  1.74644664e+02  1.74710408e+02  1.79019423e+02  1.81095791e+02
  1.82868270e+02  1.82965600e+02  1.85354242e+02  1.89562752e+02
  1.89574834e+02  1.89672310e+02  1.91027077e+02  1.94950274e+02
  1.99518927e+02  2.01784542e+02  2.04149936e+02  2.04559881e+02
  2.05267194e+02  2.06118964e+02  2.08133270e+02  2.09047338e+02
  2.09294404e+02  2.10601509e+02  2.14626304e+02  2.21445846e+02
  2.22947849e+02  2.24805184e+02  2.26628167e+02  2.28189327e+02
  2.28893032e+02  2.33637454e+02  2.35044073e+02  2.36284670e+02
  2.36684500e+02  2.37351876e+02  2.37904515e+02  2.39673843e+02
  2.40087383e+02  2.42298224e+02  2.44455371e+02  2.45745089e+02
  2.47396543e+02  2.47424733e+02  2.49133124e+02  2.50199516e+02
  2.50956709e+02  2.51005724e+02  2.52138755e+02  2.57266362e+02
  2.58179264e+02  2.60083093e+02  2.60765499e+02  2.62492064e+02
  2.63648761e+02  2.65056624e+02  2.66165893e+02  2.66358699e+02
  2.66927189e+02  2.73760950e+02  2.76765168e+02  2.77043285e+02
  2.78210634e+02  2.78449570e+02  2.78926353e+02  2.82206256e+02
  2.84101176e+02  2.84932306e+02  2.86464187e+02  2.86772706e+02
  2.86931290e+02  2.87806515e+02  2.88479049e+02  2.88826115e+02
  2.89886738e+02  2.90002505e+02  2.90633014e+02  2.90673531e+02
  2.91329522e+02  2.91437334e+02  2.91755546e+02  2.92387265e+02
  2.93628281e+02  2.94666653e+02  2.94932601e+02  2.96188315e+02
  2.96502288e+02  2.96822454e+02  2.97975474e+02  2.98212430e+02
  3.01696582e+02  3.01876822e+02  3.02112561e+02  3.03572646e+02
  3.04409455e+02  3.04449763e+02  3.06384175e+02  3.06727103e+02
  3.07812719e+02  3.08096964e+02  3.10210664e+02  3.11984654e+02
  3.12755351e+02  3.14574421e+02  3.17598550e+02  3.17861441e+02
  3.19020009e+02  3.20094631e+02  3.20899374e+02  3.21383177e+02
  3.23073902e+02  3.23170946e+02  3.23359694e+02  3.23678838e+02
  3.24019798e+02  3.26023906e+02  3.26326863e+02  3.27089227e+02
  3.27093677e+02  3.29794865e+02  3.30083446e+02  3.31713138e+02
  3.33040703e+02  3.34824512e+02  3.34942982e+02  3.36264366e+02
  3.38064250e+02  3.41586114e+02  3.42427604e+02  3.43392884e+02
  3.45169167e+02  3.45467793e+02  3.51098770e+02  3.52589335e+02
  3.52938639e+02  3.53122732e+02  3.57327858e+02  3.60230626e+02
  3.60404347e+02  3.60494199e+02  3.61846267e+02  3.63639297e+02
  3.65528706e+02  3.66902709e+02  3.67026251e+02  3.67221496e+02
  3.68871842e+02  3.70497366e+02  3.70665008e+02  3.71474657e+02
  3.72391756e+02  3.73902990e+02  3.74044271e+02  3.75975458e+02
  3.76103509e+02  3.78576962e+02  3.79102861e+02  3.81301733e+02
  3.83305336e+02  3.84246014e+02  3.89945653e+02  3.90751718e+02
  3.94941529e+02  3.96037631e+02  4.03137970e+02  4.06941403e+02
  4.07718412e+02  4.14385640e+02  4.14433011e+02  4.15231967e+02
  4.18896984e+02  4.19530524e+02  4.20454152e+02  4.20949962e+02
  4.23135587e+02  4.29050163e+02  4.31102150e+02  4.34196834e+02
  4.44554017e+02  4.45936030e+02  4.73149208e+02]
sorted_val_rewards: [-142.00359058 -132.96010519 -131.01555987 -130.12491644 -125.90649512
 -109.44587409 -105.88061755  -94.75279234  -87.27247435  -81.97545782
  -81.40890617  -81.00674801  -78.93406316  -78.42502248  -76.13403126
  -75.02969541  -74.12887018  -69.01056894  -67.85891444  -64.97621838
  -64.8000001   -50.31906834  -44.4901949   -37.28255582  -36.37950117
  -20.41800932  -14.47118388    0.97147912   19.62253484   27.467252
   43.91598247   44.8500197    57.89239177   66.87497899   71.05660111
   93.03444123  105.72097092  142.42451181  143.51088109  158.93814401
  163.26711477  168.20510566  168.39927287  169.19923675  209.56820738
  213.39913501  215.42211929  225.14588564  240.74621709  256.22410276
  256.23372493  266.10544335  275.04608232  282.3250276   300.66861177
  350.75464928  357.43277402  368.30963475  389.84713814  400.04134269
  413.8819924   434.80815707  467.30017704]
maximum traj length 200
maximum traj length 200
num train_obs 7140
num train_labels 7140
num val_obs 1953
num val_labels 1953
ModuleList(
  (0): Linear(in_features=19, out_features=128, bias=True)
  (1): Linear(in_features=128, out_features=64, bias=True)
  (2): Linear(in_features=64, out_features=1, bias=False)
)
Training reward model from scratch...
Total number of parameters: 10880
Number of trainable paramters: 10880
device: cuda:3
end of epoch 0: val_loss 0.2869325831666831, val_acc 0.8919610855094726
trigger times: 0
saving model weights...
end of epoch 1: val_loss 0.19087464481999128, val_acc 0.9226830517153097
trigger times: 0
saving model weights...
end of epoch 2: val_loss 0.18044666568984638, val_acc 0.9283154121863799
trigger times: 0
saving model weights...
end of epoch 3: val_loss 0.17088679682135724, val_acc 0.9303635432667691
trigger times: 0
saving model weights...
end of epoch 4: val_loss 0.15484198750015093, val_acc 0.9365079365079365
trigger times: 0
saving model weights...
end of epoch 5: val_loss 0.16090297676563634, val_acc 0.9370199692780338
trigger times: 1
end of epoch 6: val_loss 0.1407526143875587, val_acc 0.9411162314388121
trigger times: 0
saving model weights...
end of epoch 7: val_loss 0.15800018715689665, val_acc 0.937532002048131
trigger times: 1
end of epoch 8: val_loss 0.14537685238450904, val_acc 0.9421402969790067
trigger times: 2
end of epoch 9: val_loss 0.14255401561334477, val_acc 0.9436763952892985
trigger times: 3
end of epoch 10: val_loss 0.14268520544502775, val_acc 0.9431643625192012
trigger times: 4
end of epoch 11: val_loss 0.1413119614581549, val_acc 0.9441884280593958
trigger times: 5
end of epoch 12: val_loss 0.13742180504442644, val_acc 0.9457245263696876
trigger times: 0
saving model weights...
end of epoch 13: val_loss 0.1394392754534574, val_acc 0.9431643625192012
trigger times: 1
end of epoch 14: val_loss 0.14326563307959403, val_acc 0.9436763952892985
trigger times: 2
end of epoch 15: val_loss 0.14043463977661952, val_acc 0.9457245263696876
trigger times: 3
end of epoch 16: val_loss 0.14580805118731524, val_acc 0.9447004608294931
trigger times: 4
end of epoch 17: val_loss 0.15160339040550205, val_acc 0.9421402969790067
trigger times: 5
end of epoch 18: val_loss 0.17069379306065818, val_acc 0.9406041986687148
trigger times: 6
end of epoch 19: val_loss 0.13760086161898236, val_acc 0.9447004608294931
trigger times: 7
end of epoch 20: val_loss 0.147287301063516, val_acc 0.9457245263696876
trigger times: 8
end of epoch 21: val_loss 0.15519960416824502, val_acc 0.9436763952892985
trigger times: 9
end of epoch 22: val_loss 0.14981242798816494, val_acc 0.942652329749104
trigger times: 10
Early stopping.
0 -38.98387320060283 -142.0035905826286
1 -38.12014527840074 -132.9601051936869
2 -41.951046247035265 -131.01555986967267
3 -41.50597899034619 -130.12491644267755
4 -35.88013452664018 -125.90649512105452
5 -35.17220980115235 -109.44587408588339
6 -31.850359570235014 -105.88061755154125
7 -33.046508979052305 -94.75279234305356
8 -31.478046774398535 -87.2724743489968
9 -32.13888285215944 -81.97545782464825
10 -23.652831160696223 -81.40890616600856
11 -27.460351042449474 -81.00674801179076
12 -30.429573023691773 -78.93406316283158
13 -29.281778875738382 -78.42502247621945
14 -23.744972063228488 -76.13403125631334
15 -33.26271390914917 -75.02969540587696
16 -26.59742747619748 -74.12887018406042
17 -26.02676491998136 -69.01056893862284
18 -21.00199209130369 -67.85891443557135
19 -25.460550345480442 -64.97621837749482
20 -23.817636118270457 -64.80000009663496
21 -21.62071380391717 -50.319068336803426
22 -23.81229321938008 -44.49019489529177
23 -22.515344361774623 -37.282555821728685
24 -21.90124195162207 -36.37950117215486
25 -18.984539558412507 -20.418009315237114
26 -20.519682141690282 -14.4711838787269
27 -19.461333419196308 0.971479121789783
28 -17.69020189862931 19.622534836185636
29 -15.757251095259562 27.46725199972997
30 -18.698853405978298 43.91598246817927
31 -18.47032623249106 44.850019698054204
32 -17.18375700688921 57.892391774752376
33 -14.767158388043754 66.874978985273
34 -17.470777218812145 71.05660111371789
35 -16.078366299159825 93.034441225649
36 -14.509779991814867 105.72097091834365
37 -12.79610060559935 142.42451181000234
38 -14.801906846812926 143.51088109267857
39 -11.773878340492956 158.9381440127044
40 -11.565437703160569 163.26711477318133
41 -13.67336792947026 168.20510565770127
42 -13.364797780028312 168.3992728696738
43 -14.024509796523489 169.19923674906562
44 -11.659104424936231 209.56820737620916
45 -16.420364294666797 213.39913500740522
46 -13.129224660355248 215.42211929419062
47 -12.249137328471988 225.14588563919364
48 -10.772545959625859 240.74621709213264
49 -7.705748723354191 256.22410276039744
50 -10.196723246132024 256.23372493474807
51 -11.084014283842407 266.1054433499994
52 -11.71140729560284 275.0460823215203
53 -7.094117164175259 282.3250275983876
54 -9.975751977355685 300.668611768182
55 -5.670580352598336 350.75464928107647
56 -7.847012116428232 357.43277401751465
57 -5.376345820783172 368.3096347545002
58 -6.432302011584397 389.8471381383487
59 -4.588783669634722 400.0413426933392
60 -4.776469611300854 413.88199240361837
61 -6.147646418248769 434.80815706930116
62 -5.55151892878348 467.300177037188
train accuracy: 0.9782913165266106
validation accuracy: 0.942652329749104
demos: (680, 200, 19)
demo_rewards: (680,)
sorted_train_rewards: [-1.45727567e+02 -1.42003591e+02 -1.41254669e+02 -1.40092680e+02
 -1.39123043e+02 -1.37881031e+02 -1.36499697e+02 -1.33973547e+02
 -1.32960105e+02 -1.31015560e+02 -1.30975329e+02 -1.28708555e+02
 -1.26440365e+02 -1.25906495e+02 -1.24419490e+02 -1.23737226e+02
 -1.23216915e+02 -1.23114549e+02 -1.20065292e+02 -1.19526861e+02
 -1.18870716e+02 -1.18441257e+02 -1.18264519e+02 -1.18089389e+02
 -1.17249924e+02 -1.16491159e+02 -1.15454518e+02 -1.15278652e+02
 -1.15100055e+02 -1.14763156e+02 -1.14106000e+02 -1.14085096e+02
 -1.12885489e+02 -1.11902348e+02 -1.11179560e+02 -1.10805135e+02
 -1.10579609e+02 -1.10248073e+02 -1.10230585e+02 -1.09445874e+02
 -1.08512208e+02 -1.07814017e+02 -1.07102963e+02 -1.06969949e+02
 -1.06516575e+02 -1.06298076e+02 -1.06225683e+02 -1.06044562e+02
 -1.05880618e+02 -1.04789003e+02 -1.04404699e+02 -1.03152139e+02
 -1.01565908e+02 -1.00495946e+02 -1.00348353e+02 -9.98107665e+01
 -9.88942217e+01 -9.79572956e+01 -9.75439422e+01 -9.72448577e+01
 -9.72257679e+01 -9.42721572e+01 -9.32484161e+01 -9.16823890e+01
 -9.08470847e+01 -8.99058909e+01 -8.98885408e+01 -8.98050349e+01
 -8.92193126e+01 -8.85564623e+01 -8.76650055e+01 -8.72724743e+01
 -8.71119989e+01 -8.58361739e+01 -8.55512833e+01 -8.51226475e+01
 -8.48467849e+01 -8.45958101e+01 -8.45392988e+01 -8.42859587e+01
 -8.41138390e+01 -8.40914856e+01 -8.35881681e+01 -8.33560899e+01
 -8.27123853e+01 -8.22083602e+01 -8.20518693e+01 -8.19754578e+01
 -8.18475632e+01 -8.16033264e+01 -8.14466377e+01 -8.14089062e+01
 -8.10067480e+01 -8.08547762e+01 -8.04839138e+01 -8.02948781e+01
 -8.02515601e+01 -8.00780476e+01 -8.00513350e+01 -7.97844841e+01
 -7.92308379e+01 -7.92231457e+01 -7.89340632e+01 -7.87973813e+01
 -7.87799725e+01 -7.86319117e+01 -7.85266366e+01 -7.84581372e+01
 -7.84250225e+01 -7.84173816e+01 -7.83277636e+01 -7.83082660e+01
 -7.82465496e+01 -7.77859358e+01 -7.75778370e+01 -7.72879900e+01
 -7.72658270e+01 -7.63592934e+01 -7.63473724e+01 -7.61340313e+01
 -7.59564467e+01 -7.56631849e+01 -7.50296954e+01 -7.48307224e+01
 -7.47751836e+01 -7.43514152e+01 -7.42093893e+01 -7.41288702e+01
 -7.37140202e+01 -7.36478915e+01 -7.35268215e+01 -7.30436384e+01
 -7.30186274e+01 -7.30055356e+01 -7.27425108e+01 -7.26136252e+01
 -7.23302067e+01 -7.23199016e+01 -7.19926455e+01 -7.19459705e+01
 -7.18162655e+01 -7.16687210e+01 -7.15554191e+01 -7.14726179e+01
 -7.14230176e+01 -7.10097190e+01 -7.07613466e+01 -7.02497554e+01
 -7.02359873e+01 -6.98788242e+01 -6.98583271e+01 -6.97645737e+01
 -6.96636235e+01 -6.95829887e+01 -6.94583092e+01 -6.90105689e+01
 -6.88032812e+01 -6.87252754e+01 -6.86396008e+01 -6.85756081e+01
 -6.85624065e+01 -6.82574483e+01 -6.81709241e+01 -6.80284134e+01
 -6.79574881e+01 -6.78589144e+01 -6.77543594e+01 -6.77033281e+01
 -6.76170489e+01 -6.70937732e+01 -6.62387938e+01 -6.60936981e+01
 -6.58589998e+01 -6.57031361e+01 -6.55230979e+01 -6.53374190e+01
 -6.51591785e+01 -6.50060709e+01 -6.49762184e+01 -6.48000001e+01
 -6.46976488e+01 -6.44254671e+01 -6.43151789e+01 -6.43072256e+01
 -6.42022658e+01 -6.41459702e+01 -6.41244472e+01 -6.40706744e+01
 -6.39675921e+01 -6.38275171e+01 -6.32677123e+01 -6.32463365e+01
 -6.31252604e+01 -6.31014303e+01 -6.20024558e+01 -6.18547033e+01
 -6.11261368e+01 -6.07758840e+01 -6.04791273e+01 -6.03309702e+01
 -6.02542338e+01 -6.01849925e+01 -6.00931470e+01 -5.93059716e+01
 -5.92425420e+01 -5.92392203e+01 -5.83372036e+01 -5.81371124e+01
 -5.80862675e+01 -5.78572803e+01 -5.76610527e+01 -5.68119613e+01
 -5.63099047e+01 -5.61469596e+01 -5.60478288e+01 -5.60121637e+01
 -5.55116591e+01 -5.50587300e+01 -5.46235775e+01 -5.45877794e+01
 -5.38140519e+01 -5.29660894e+01 -5.23998422e+01 -5.21451496e+01
 -5.03190683e+01 -4.94482556e+01 -4.87197115e+01 -4.70878557e+01
 -4.64023367e+01 -4.55497329e+01 -4.52135310e+01 -4.44901949e+01
 -4.40898814e+01 -4.39133519e+01 -4.35323363e+01 -4.28434398e+01
 -4.26845918e+01 -4.24650695e+01 -4.23226329e+01 -4.15601143e+01
 -4.13106519e+01 -4.06303312e+01 -4.01019686e+01 -3.93647734e+01
 -3.84572529e+01 -3.84347912e+01 -3.72825558e+01 -3.71596379e+01
 -3.65728483e+01 -3.64541601e+01 -3.64201721e+01 -3.63795012e+01
 -3.56366006e+01 -3.51896507e+01 -3.49277470e+01 -3.46164067e+01
 -3.44876502e+01 -3.40829164e+01 -3.37931541e+01 -3.36956904e+01
 -3.33480978e+01 -3.15878578e+01 -3.14993398e+01 -3.11127756e+01
 -3.01277106e+01 -2.95933148e+01 -2.93762808e+01 -2.91286017e+01
 -2.89076751e+01 -2.83414700e+01 -2.82969893e+01 -2.78134489e+01
 -2.77930868e+01 -2.71949370e+01 -2.63456513e+01 -2.45199833e+01
 -2.26604777e+01 -2.17769506e+01 -2.17096738e+01 -2.11615803e+01
 -2.04180093e+01 -2.01312764e+01 -2.00548875e+01 -1.87912468e+01
 -1.74207898e+01 -1.68901975e+01 -1.61143764e+01 -1.53629384e+01
 -1.44711839e+01 -1.39267768e+01 -1.12508710e+01 -7.28306957e+00
 -6.03798033e+00 -4.48405644e+00 -1.89633986e+00 -1.63608121e+00
 -1.43319012e+00 -1.25215708e+00 -1.12054670e+00 -5.72842125e-01
  2.69474090e-01  5.32120974e-01  8.48755488e-01  3.13137341e+00
  4.09388103e+00  4.23223568e+00  4.38318042e+00  6.23806049e+00
  6.83923461e+00  6.84166284e+00  8.10954932e+00  8.62917691e+00
  1.29952266e+01  1.34336148e+01  1.51800256e+01  1.58979399e+01
  1.89453788e+01  1.94910199e+01  1.96225348e+01  2.05305881e+01
  2.15104917e+01  2.41170029e+01  2.43710703e+01  2.58660332e+01
  2.60724768e+01  2.70113358e+01  2.74672520e+01  2.75751580e+01
  2.85285750e+01  3.05892332e+01  3.27442577e+01  3.36843458e+01
  3.37899159e+01  3.41611587e+01  3.42153602e+01  3.48663961e+01
  3.50530887e+01  3.72456187e+01  3.99267393e+01  3.99602846e+01
  4.23875378e+01  4.39159825e+01  4.42327291e+01  4.48500197e+01
  4.83776686e+01  4.88736658e+01  5.05284149e+01  5.51223952e+01
  5.56692378e+01  5.59202636e+01  5.66357258e+01  5.78923918e+01
  5.86309323e+01  5.93436812e+01  6.02906417e+01  6.47458201e+01
  6.51680641e+01  6.68749790e+01  6.76039372e+01  6.78694515e+01
  6.85395993e+01  6.85552576e+01  6.99023624e+01  7.00722782e+01
  7.10566011e+01  7.18958063e+01  7.42631002e+01  7.64437617e+01
  7.80250544e+01  8.00743291e+01  8.04122550e+01  8.13002353e+01
  8.18901469e+01  8.32565101e+01  8.33459185e+01  8.73487076e+01
  9.04900629e+01  9.13388441e+01  9.22074020e+01  9.22656205e+01
  9.30086833e+01  9.30344412e+01  9.73584524e+01  9.78474792e+01
  9.87173322e+01  9.92848455e+01  1.01506611e+02  1.02399087e+02
  1.03162159e+02  1.03450957e+02  1.03768508e+02  1.04406383e+02
  1.05720971e+02  1.07092483e+02  1.11625387e+02  1.11924895e+02
  1.13547690e+02  1.14761007e+02  1.16179984e+02  1.16837433e+02
  1.21326132e+02  1.25537775e+02  1.33048584e+02  1.33573303e+02
  1.36511921e+02  1.37758285e+02  1.39131419e+02  1.41638120e+02
  1.41844812e+02  1.42424512e+02  1.43496609e+02  1.43510881e+02
  1.46199060e+02  1.46556236e+02  1.48407567e+02  1.48912536e+02
  1.49165606e+02  1.50802776e+02  1.51584630e+02  1.57633889e+02
  1.57737232e+02  1.58454369e+02  1.58938144e+02  1.63267115e+02
  1.64188964e+02  1.64960890e+02  1.68205106e+02  1.68399273e+02
  1.69199237e+02  1.71268575e+02  1.72966312e+02  1.74644664e+02
  1.74710408e+02  1.79019423e+02  1.81095791e+02  1.82868270e+02
  1.82965600e+02  1.85354242e+02  1.89562752e+02  1.89672310e+02
  1.91027077e+02  1.94950274e+02  1.99518927e+02  2.01784542e+02
  2.04149936e+02  2.04559881e+02  2.05267194e+02  2.06118964e+02
  2.08133270e+02  2.09047338e+02  2.09294404e+02  2.10601509e+02
  2.13399135e+02  2.14626304e+02  2.15422119e+02  2.21445846e+02
  2.22947849e+02  2.24805184e+02  2.25145886e+02  2.26628167e+02
  2.28189327e+02  2.28893032e+02  2.35044073e+02  2.36284670e+02
  2.36684500e+02  2.37351876e+02  2.37904515e+02  2.39673843e+02
  2.40087383e+02  2.40746217e+02  2.45745089e+02  2.47396543e+02
  2.47424733e+02  2.49133124e+02  2.50956709e+02  2.51005724e+02
  2.52138755e+02  2.56224103e+02  2.56233725e+02  2.57266362e+02
  2.58179264e+02  2.60083093e+02  2.60765499e+02  2.62492064e+02
  2.63648761e+02  2.65056624e+02  2.66105443e+02  2.66165893e+02
  2.66358699e+02  2.66927189e+02  2.73760950e+02  2.75046082e+02
  2.76765168e+02  2.77043285e+02  2.78210634e+02  2.78449570e+02
  2.78926353e+02  2.82206256e+02  2.84101176e+02  2.84932306e+02
  2.86464187e+02  2.86772706e+02  2.86931290e+02  2.87806515e+02
  2.88479049e+02  2.88826115e+02  2.89886738e+02  2.90002505e+02
  2.90633014e+02  2.90673531e+02  2.91329522e+02  2.91437334e+02
  2.91755546e+02  2.92387265e+02  2.93628281e+02  2.94666653e+02
  2.94932601e+02  2.96188315e+02  2.96502288e+02  2.96822454e+02
  2.97975474e+02  2.98212430e+02  3.01696582e+02  3.01876822e+02
  3.02112561e+02  3.03572646e+02  3.04409455e+02  3.04449763e+02
  3.06384175e+02  3.06727103e+02  3.08096964e+02  3.10210664e+02
  3.11984654e+02  3.12755351e+02  3.14574421e+02  3.17598550e+02
  3.17861441e+02  3.19020009e+02  3.20094631e+02  3.20899374e+02
  3.21383177e+02  3.23073902e+02  3.23170946e+02  3.23359694e+02
  3.23678838e+02  3.24019798e+02  3.26023906e+02  3.26326863e+02
  3.27089227e+02  3.27093677e+02  3.29794865e+02  3.30083446e+02
  3.31713138e+02  3.33040703e+02  3.34824512e+02  3.34942982e+02
  3.36264366e+02  3.38064250e+02  3.41586114e+02  3.42427604e+02
  3.43392884e+02  3.45169167e+02  3.45467793e+02  3.50754649e+02
  3.51098770e+02  3.52589335e+02  3.52938639e+02  3.53122732e+02
  3.57327858e+02  3.57432774e+02  3.60230626e+02  3.60404347e+02
  3.60494199e+02  3.61846267e+02  3.63639297e+02  3.65528706e+02
  3.66902709e+02  3.67026251e+02  3.67221496e+02  3.68871842e+02
  3.71474657e+02  3.75975458e+02  3.76103509e+02  3.78576962e+02
  3.79102861e+02  3.81301733e+02  3.83305336e+02  3.84246014e+02
  3.89847138e+02  3.89945653e+02  3.90751718e+02  3.94941529e+02
  3.96037631e+02  4.00041343e+02  4.06941403e+02  4.07718412e+02
  4.13881992e+02  4.14385640e+02  4.14433011e+02  4.15231967e+02
  4.18896984e+02  4.19530524e+02  4.20454152e+02  4.20949962e+02
  4.23135587e+02  4.29050163e+02  4.31102150e+02  4.34196834e+02
  4.34808157e+02  4.44554017e+02  4.45936030e+02  4.73149208e+02]
sorted_val_rewards: [-168.28140691 -147.01341425 -130.12491644 -125.47806733 -117.17797658
 -106.26498585 -103.71188217 -101.16927464  -99.07938895  -96.05813977
  -94.75279234  -93.99360087  -88.85541894  -88.69087411  -86.25406236
  -83.04423312  -81.77287747  -80.05834709  -78.20169549  -78.05157795
  -75.88537834  -75.28566573  -73.03676746  -72.86435067  -72.60663404
  -67.18202439  -65.00353989  -63.0656737   -61.09658686  -59.23492089
  -57.43250965  -57.15894304  -56.24471091  -53.96898177  -52.07084376
  -30.83189806  -28.51322633  -20.14259509    0.97147912   16.59236878
   19.49169204   55.36888608   57.7674455    64.96033396   88.72799534
  107.71006782  148.38223634  158.95650203  166.29428147  170.62140514
  171.50931422  189.57483419  209.56820738  233.63745377  242.29822404
  244.45537109  250.19951559  282.3250276   300.66861177  307.81271914
  368.30963475  370.49736551  370.66500773  372.39175602  373.90298986
  374.04427108  403.13796959  467.30017704]
maximum traj length 200
maximum traj length 200
num train_obs 7140
num train_labels 7140
num val_obs 2278
num val_labels 2278
ModuleList(
  (0): Linear(in_features=19, out_features=128, bias=True)
  (1): Linear(in_features=128, out_features=64, bias=True)
  (2): Linear(in_features=64, out_features=1, bias=False)
)
Training reward model from scratch...
Total number of parameters: 10880
Number of trainable paramters: 10880
device: cuda:3
end of epoch 0: val_loss 0.23577573141699654, val_acc 0.8950834064969271
trigger times: 0
saving model weights...
end of epoch 1: val_loss 0.1833143961070863, val_acc 0.9201053555750659
trigger times: 0
saving model weights...
end of epoch 2: val_loss 0.16436347551104868, val_acc 0.9297629499561019
trigger times: 0
saving model weights...
end of epoch 3: val_loss 0.18366721958458154, val_acc 0.9187884108867428
trigger times: 1
end of epoch 4: val_loss 0.18005358208855013, val_acc 0.9223002633889377
trigger times: 2
end of epoch 5: val_loss 0.16669555091394564, val_acc 0.9288849868305531
trigger times: 3
end of epoch 6: val_loss 0.1716364297016548, val_acc 0.926251097453907
trigger times: 4
end of epoch 7: val_loss 0.18545753287199, val_acc 0.9218612818261633
trigger times: 5
end of epoch 8: val_loss 0.19908624617621584, val_acc 0.9205443371378402
trigger times: 6
end of epoch 9: val_loss 0.20425545026941283, val_acc 0.9201053555750659
trigger times: 7
end of epoch 10: val_loss 0.18200999212871302, val_acc 0.9293239683933274
trigger times: 8
end of epoch 11: val_loss 0.1848595378844094, val_acc 0.92756804214223
trigger times: 9
end of epoch 12: val_loss 0.18794417937651778, val_acc 0.926251097453907
trigger times: 10
Early stopping.
0 -33.20752519182861 -168.28140690606054
1 -37.08350626565516 -147.01341424791994
2 -38.845365388318896 -130.12491644267755
3 -28.94962083455175 -125.47806732825039
4 -34.043960362672806 -117.17797657764834
5 -22.253241455182433 -106.26498585222654
6 -27.833928113803267 -103.71188217078013
7 -27.338690755772404 -101.16927464482806
8 -29.65829169936478 -99.07938895356462
9 -28.847995784133673 -96.05813976775474
10 -28.558035664260387 -94.75279234305356
11 -23.46181331574917 -93.99360086694082
12 -26.136536359786987 -88.85541893746874
13 -27.720899908454157 -88.69087411184039
14 -25.159964655991644 -86.25406235897236
15 -22.42961381445639 -83.04423312459467
16 -25.374371542362496 -81.77287746952074
17 -25.592752747237682 -80.05834709255178
18 -28.200328761711717 -78.20169549348978
19 -27.8386637493968 -78.05157794611979
20 -26.81287759053521 -75.88537834325405
21 -25.86468183947727 -75.28566573445855
22 -25.414971563965082 -73.03676746024259
23 -25.50205310061574 -72.86435067181704
24 -26.51829630881548 -72.6066340417961
25 -22.89159419457428 -67.18202438975976
26 -22.26011463161558 -65.0035398910884
27 -24.741732995957136 -63.06567370336602
28 -22.047012027120218 -61.09658686110905
29 -20.769074654206634 -59.23492089348715
30 -21.658120416337624 -57.43250965119784
31 -22.333854537457228 -57.15894304047781
32 -22.811796505004168 -56.244710909207356
33 -23.74301272490993 -53.96898177241162
34 -18.31824199622497 -52.07084375966113
35 -19.949496369692497 -30.831898058739075
36 -20.323968292563222 -28.51322632651336
37 -18.435144804185256 -20.14259508741993
38 -19.287903839722276 0.971479121789783
39 -18.003760967985727 16.592368784775562
40 -16.117582764476538 19.491692038206416
41 -15.120210321503691 55.36888607845635
42 -18.208039110526443 57.76744549995627
43 -15.550629353383556 64.96033396275733
44 -11.991786371530907 88.72799533692061
45 -14.708515561418608 107.71006781863467
46 -14.193137809401378 148.38223634397093
47 -14.413766820798628 158.95650203412697
48 -13.580095094905118 166.29428147232497
49 -13.523924991022795 170.62140513944783
50 -13.436680121765676 171.5093142215239
51 -12.561849103134591 189.5748341940192
52 -12.000016283986042 209.56820737620916
53 -12.69191502884496 233.63745376530167
54 -11.555829135264503 242.29822403524432
55 -11.240501604042947 244.45537108939513
56 -7.249978423467837 250.19951558675749
57 -8.50869496469386 282.3250275983876
58 -9.336459225742146 300.668611768182
59 -8.704767394403461 307.81271913623794
60 -6.74329486762872 368.3096347545002
61 -7.054136246442795 370.4973655070732
62 -7.0628191445430275 370.66500772735526
63 -7.8414451927819755 372.3917560212975
64 -8.08112144691404 373.9029898572837
65 -8.090261743869632 374.0442710820621
66 -6.435566644970095 403.13796958654353
67 -6.89415863819886 467.300177037188
train accuracy: 0.969047619047619
validation accuracy: 0.926251097453907
