demos: (480, 200, 19)
demo_rewards: (480,)
sorted_train_rewards: [-1.68281407e+02 -1.45727567e+02 -1.39123043e+02 -1.33973547e+02
 -1.25906495e+02 -1.23737226e+02 -1.18441257e+02 -1.15454518e+02
 -1.15278652e+02 -1.14763156e+02 -1.14085096e+02 -1.12885489e+02
 -1.11179560e+02 -1.10579609e+02 -1.10248073e+02 -1.06969949e+02
 -1.06298076e+02 -1.06264986e+02 -1.05880618e+02 -1.01565908e+02
 -1.00495946e+02 -1.00348353e+02 -9.79572956e+01 -9.72448577e+01
 -9.72257679e+01 -9.60581398e+01 -9.47527923e+01 -9.42721572e+01
 -9.39936009e+01 -9.08470847e+01 -8.99058909e+01 -8.98050349e+01
 -8.92193126e+01 -8.88554189e+01 -8.71119989e+01 -8.58361739e+01
 -8.42859587e+01 -8.40914856e+01 -8.33560899e+01 -8.14466377e+01
 -8.10067480e+01 -7.89340632e+01 -7.86319117e+01 -7.84173816e+01
 -7.80515779e+01 -7.63592934e+01 -7.50296954e+01 -7.48307224e+01
 -7.41288702e+01 -7.35268215e+01 -7.30055356e+01 -7.26136252e+01
 -7.23199016e+01 -7.10097190e+01 -7.02497554e+01 -6.98788242e+01
 -6.90105689e+01 -6.88032812e+01 -6.82574483e+01 -6.81709241e+01
 -6.78589144e+01 -6.77543594e+01 -6.77033281e+01 -6.58589998e+01
 -6.53374190e+01 -6.50060709e+01 -6.49762184e+01 -6.43151789e+01
 -6.32463365e+01 -6.31014303e+01 -5.92349209e+01 -5.78572803e+01
 -5.76610527e+01 -5.71589430e+01 -5.63099047e+01 -5.50587300e+01
 -5.45877794e+01 -5.38140519e+01 -5.23998422e+01 -5.20708438e+01
 -5.03190683e+01 -4.94482556e+01 -4.87197115e+01 -4.55497329e+01
 -4.52135310e+01 -4.44901949e+01 -4.39133519e+01 -4.35323363e+01
 -4.26845918e+01 -4.13106519e+01 -3.93647734e+01 -3.84347912e+01
 -3.72825558e+01 -3.65728483e+01 -3.64541601e+01 -3.63795012e+01
 -3.56366006e+01 -3.51896507e+01 -3.49277470e+01 -3.44876502e+01
 -3.36956904e+01 -2.95933148e+01 -2.77930868e+01 -2.71949370e+01
 -2.63456513e+01 -2.26604777e+01 -2.17769506e+01 -2.17096738e+01
 -2.11615803e+01 -2.01425951e+01 -2.00548875e+01 -1.87912468e+01
 -1.74207898e+01 -1.68901975e+01 -1.61143764e+01 -1.44711839e+01
 -1.39267768e+01 -1.12508710e+01 -7.28306957e+00 -6.03798033e+00
 -4.48405644e+00 -1.63608121e+00 -1.43319012e+00 -1.25215708e+00
  2.69474090e-01  5.32120974e-01  8.48755488e-01  9.71479122e-01
  3.13137341e+00  4.09388103e+00  4.23223568e+00  6.23806049e+00
  8.10954932e+00  8.62917691e+00  1.29952266e+01  1.34336148e+01
  1.51800256e+01  1.58979399e+01  1.65923688e+01  1.89453788e+01
  1.94910199e+01  1.94916920e+01  1.96225348e+01  2.05305881e+01
  2.15104917e+01  2.41170029e+01  2.43710703e+01  2.58660332e+01
  2.60724768e+01  2.74672520e+01  2.75751580e+01  2.85285750e+01
  3.05892332e+01  3.27442577e+01  3.37899159e+01  3.41611587e+01
  3.42153602e+01  3.48663961e+01  3.72456187e+01  3.99267393e+01
  3.99602846e+01  4.23875378e+01  4.39159825e+01  4.42327291e+01
  4.48500197e+01  4.83776686e+01  4.88736658e+01  5.51223952e+01
  5.53688861e+01  5.56692378e+01  5.59202636e+01  5.78923918e+01
  5.86309323e+01  5.93436812e+01  6.02906417e+01  6.47458201e+01
  6.49603340e+01  6.51680641e+01  6.68749790e+01  6.76039372e+01
  6.78694515e+01  6.85395993e+01  6.85552576e+01  7.00722782e+01
  7.10566011e+01  7.18958063e+01  7.42631002e+01  7.64437617e+01
  7.80250544e+01  8.00743291e+01  8.04122550e+01  8.18901469e+01
  8.32565101e+01  8.33459185e+01  8.73487076e+01  8.87279953e+01
  9.04900629e+01  9.13388441e+01  9.30086833e+01  9.30344412e+01
  9.73584524e+01  9.78474792e+01  9.87173322e+01  9.92848455e+01
  1.02399087e+02  1.03162159e+02  1.03450957e+02  1.03768508e+02
  1.04406383e+02  1.05720971e+02  1.07092483e+02  1.07710068e+02
  1.11625387e+02  1.11924895e+02  1.13547690e+02  1.14761007e+02
  1.16179984e+02  1.16837433e+02  1.21326132e+02  1.33048584e+02
  1.33573303e+02  1.36511921e+02  1.37758285e+02  1.39131419e+02
  1.41638120e+02  1.41844812e+02  1.42424512e+02  1.43496609e+02
  1.43510881e+02  1.46199060e+02  1.46556236e+02  1.48382236e+02
  1.48407567e+02  1.48912536e+02  1.49165606e+02  1.50802776e+02
  1.51584630e+02  1.57633889e+02  1.58938144e+02  1.58956502e+02
  1.63267115e+02  1.64188964e+02  1.64960890e+02  1.66294281e+02
  1.68205106e+02  1.68399273e+02  1.70621405e+02  1.71268575e+02
  1.71509314e+02  1.72966312e+02  1.74644664e+02  1.74710408e+02
  1.79019423e+02  1.81095791e+02  1.82868270e+02  1.82965600e+02
  1.89562752e+02  1.89574834e+02  1.89672310e+02  1.91027077e+02
  1.94950274e+02  1.99518927e+02  2.01784542e+02  2.04149936e+02
  2.06118964e+02  2.08133270e+02  2.09047338e+02  2.09294404e+02
  2.09568207e+02  2.10601509e+02  2.13399135e+02  2.15422119e+02
  2.21445846e+02  2.22947849e+02  2.24805184e+02  2.25145886e+02
  2.26628167e+02  2.28189327e+02  2.28893032e+02  2.35044073e+02
  2.36284670e+02  2.36684500e+02  2.37351876e+02  2.37904515e+02
  2.39673843e+02  2.40087383e+02  2.40746217e+02  2.42298224e+02
  2.44455371e+02  2.45745089e+02  2.47396543e+02  2.47424733e+02
  2.49133124e+02  2.50199516e+02  2.50956709e+02  2.51005724e+02
  2.52138755e+02  2.56224103e+02  2.56233725e+02  2.57266362e+02
  2.58179264e+02  2.60083093e+02  2.60765499e+02  2.62492064e+02
  2.63648761e+02  2.65056624e+02  2.66105443e+02  2.66165893e+02
  2.66927189e+02  2.73760950e+02  2.75046082e+02  2.76765168e+02
  2.77043285e+02  2.78210634e+02  2.78449570e+02  2.78926353e+02
  2.82206256e+02  2.82325028e+02  2.84101176e+02  2.86464187e+02
  2.86772706e+02  2.86931290e+02  2.87806515e+02  2.88479049e+02
  2.88826115e+02  2.89886738e+02  2.90002505e+02  2.90633014e+02
  2.90673531e+02  2.91437334e+02  2.91755546e+02  2.92387265e+02
  2.93628281e+02  2.94666653e+02  2.94932601e+02  2.96188315e+02
  2.96502288e+02  2.96822454e+02  2.97975474e+02  2.98212430e+02
  3.00668612e+02  3.01696582e+02  3.01876822e+02  3.02112561e+02
  3.03572646e+02  3.04409455e+02  3.04449763e+02  3.06384175e+02
  3.06727103e+02  3.07812719e+02  3.08096964e+02  3.10210664e+02
  3.11984654e+02  3.12755351e+02  3.14574421e+02  3.17598550e+02
  3.17861441e+02  3.19020009e+02  3.20899374e+02  3.21383177e+02
  3.23073902e+02  3.23170946e+02  3.23359694e+02  3.23678838e+02
  3.26023906e+02  3.26326863e+02  3.27089227e+02  3.27093677e+02
  3.29794865e+02  3.30083446e+02  3.31713138e+02  3.34824512e+02
  3.34942982e+02  3.36264366e+02  3.38064250e+02  3.41586114e+02
  3.42427604e+02  3.43392884e+02  3.45169167e+02  3.45467793e+02
  3.50754649e+02  3.51098770e+02  3.52589335e+02  3.52938639e+02
  3.53122732e+02  3.57327858e+02  3.57432774e+02  3.60230626e+02
  3.60404347e+02  3.60494199e+02  3.63639297e+02  3.65528706e+02
  3.66902709e+02  3.67026251e+02  3.67221496e+02  3.68309635e+02
  3.68871842e+02  3.70497366e+02  3.70665008e+02  3.71474657e+02
  3.72391756e+02  3.73902990e+02  3.74044271e+02  3.75975458e+02
  3.76103509e+02  3.78576962e+02  3.79102861e+02  3.81301733e+02
  3.83305336e+02  3.84246014e+02  3.89847138e+02  3.89945653e+02
  3.94941529e+02  3.96037631e+02  4.06941403e+02  4.07718412e+02
  4.13881992e+02  4.14385640e+02  4.14433011e+02  4.15231967e+02
  4.18896984e+02  4.19530524e+02  4.20454152e+02  4.20949962e+02
  4.29050163e+02  4.31102150e+02  4.34196834e+02  4.34808157e+02
  4.44554017e+02  4.45936030e+02  4.67300177e+02  4.73149208e+02]
sorted_val_rewards: [-103.15213887  -87.66500552  -84.84678494  -81.8475632   -81.40890617
  -80.85477622  -80.48391381  -80.25156009  -33.34809777  -20.41800932
  -20.1312764   -15.36293844   -1.89633986   -0.57284213    4.38318042
    6.83923461    6.84166284   27.01133577   33.68434584   35.05308872
   50.52841486   56.63572585   57.7674455    69.90236244   81.30023532
   92.20740196   92.26562045  101.50661113  125.53777532  157.73723206
  158.45436886  169.19923675  185.35424212  204.55988076  205.26719392
  214.62630405  233.63745377  266.35869922  284.93230584  291.329522
  320.09463125  324.01979761  333.04070292  361.8462674   390.75171849
  400.04134269  403.13796959  423.13558716]
maximum traj length 200
maximum traj length 200
num train_obs 7140
num train_labels 7140
num val_obs 1128
num val_labels 1128
ModuleList(
  (0): Linear(in_features=19, out_features=128, bias=True)
  (1): Linear(in_features=128, out_features=64, bias=True)
  (2): Linear(in_features=64, out_features=1, bias=False)
)
Training reward model from scratch...
Total number of parameters: 10880
Number of trainable paramters: 10880
device: cuda:1
end of epoch 0: val_loss 0.22041019215444116, val_acc 0.9078014184397163
trigger times: 0
saving model weights...
end of epoch 1: val_loss 0.19811488039688874, val_acc 0.9148936170212766
trigger times: 0
saving model weights...
end of epoch 2: val_loss 0.19191186840039387, val_acc 0.9228723404255319
trigger times: 0
saving model weights...
end of epoch 3: val_loss 0.18110321673731333, val_acc 0.925531914893617
trigger times: 0
saving model weights...
end of epoch 4: val_loss 0.194742299840467, val_acc 0.9175531914893617
trigger times: 1
end of epoch 5: val_loss 0.19890437829123173, val_acc 0.9184397163120568
trigger times: 2
end of epoch 6: val_loss 0.19694690444026683, val_acc 0.9157801418439716
trigger times: 3
end of epoch 7: val_loss 0.1919001132552254, val_acc 0.9219858156028369
trigger times: 4
end of epoch 8: val_loss 0.19534797362718243, val_acc 0.9131205673758865
trigger times: 5
end of epoch 9: val_loss 0.20144723646460921, val_acc 0.9166666666666666
trigger times: 6
end of epoch 10: val_loss 0.19517263466931264, val_acc 0.9210992907801419
trigger times: 7
end of epoch 11: val_loss 0.20482450908271682, val_acc 0.9113475177304965
trigger times: 8
end of epoch 12: val_loss 0.19228205978323246, val_acc 0.9166666666666666
trigger times: 9
end of epoch 13: val_loss 0.21083902962991022, val_acc 0.9193262411347518
trigger times: 10
Early stopping.
0 -18.004411665839143 -103.1521388660611
1 -19.083411435829476 -87.66500551980913
2 -15.465350663755089 -84.84678494475872
3 -16.01868487536558 -81.84756319767409
4 -13.431115190964192 -81.40890616600856
5 -18.321424681693316 -80.85477622402837
6 -17.771857930812985 -80.48391381073206
7 -11.6964770257473 -80.25156008912637
8 -10.378413174767047 -33.34809776864483
9 -12.078606336377561 -20.418009315237114
10 -11.216257102380041 -20.131276401477507
11 -8.59592589829117 -15.362938437720853
12 -11.049866575980559 -1.8963398599782397
13 -11.015636441588867 -0.5728421252635456
14 -8.25655517843552 4.383180415256293
15 -6.501125277020037 6.8392346078963
16 -11.028234740253538 6.841662837067183
17 -8.530169938574545 27.01133577467053
18 -4.080184718128294 33.68434584390655
19 -6.896728907246143 35.05308871945419
20 -7.270528380002361 50.52841485696464
21 -2.9374121548607945 56.635725849291575
22 -7.088530259206891 57.76744549995627
23 -6.356554535217583 69.90236244353298
24 -6.70872945379233 81.30023532085879
25 -0.43574248417280614 92.20740196031777
26 -3.9780374999390915 92.26562045392546
27 -3.8644629425834864 101.50661112827956
28 -5.360764235374518 125.53777532052302
29 -3.308430311270058 157.73723206248386
30 -0.8993297659326345 158.4543688649787
31 -4.2214656204450876 169.19923674906562
32 0.46904945676214993 185.35424212127486
33 -1.686273108702153 204.5598807600962
34 1.9373370986431837 205.26719391532652
35 6.202840181067586 214.6263040548001
36 -0.8668814778793603 233.63745376530167
37 6.746973644476384 266.3586992205008
38 4.067282045958564 284.9323058364518
39 0.16788467625156045 291.32952200448
40 6.914136794861406 320.0946312511725
41 5.531006282195449 324.0197976082746
42 4.650242235511541 333.0407029156643
43 7.897209285292774 361.84626739841684
44 7.442427721340209 390.7517184882046
45 9.301316555589437 400.0413426933392
46 6.795252521056682 403.13796958654353
47 4.917593996040523 423.1355871564197
train accuracy: 0.9677871148459384
validation accuracy: 0.9193262411347518
demos: (530, 200, 19)
demo_rewards: (530,)
sorted_train_rewards: [-1.68281407e+02 -1.39123043e+02 -1.33973547e+02 -1.25906495e+02
 -1.23737226e+02 -1.18441257e+02 -1.15454518e+02 -1.15278652e+02
 -1.14085096e+02 -1.12885489e+02 -1.11179560e+02 -1.10579609e+02
 -1.10248073e+02 -1.06969949e+02 -1.06298076e+02 -1.06264986e+02
 -1.05880618e+02 -1.03152139e+02 -1.00666755e+02 -1.00495946e+02
 -1.00348353e+02 -9.79572956e+01 -9.72448577e+01 -9.72257679e+01
 -9.60581398e+01 -9.47527923e+01 -9.42721572e+01 -9.39936009e+01
 -9.08470847e+01 -9.02123147e+01 -8.99058909e+01 -8.97948128e+01
 -8.92193126e+01 -8.88554189e+01 -8.76650055e+01 -8.71119989e+01
 -8.66027992e+01 -8.58361739e+01 -8.49833280e+01 -8.48467849e+01
 -8.48168829e+01 -8.46166276e+01 -8.42859587e+01 -8.40914856e+01
 -8.36189262e+01 -8.33560899e+01 -8.33044003e+01 -8.33041646e+01
 -8.32372845e+01 -8.31560919e+01 -8.31235878e+01 -8.30448910e+01
 -8.27726085e+01 -8.22617211e+01 -8.20321572e+01 -8.19555320e+01
 -8.18475632e+01 -8.17518956e+01 -8.17354198e+01 -8.14466377e+01
 -8.14089062e+01 -8.13310098e+01 -8.10634463e+01 -8.10067480e+01
 -8.09655594e+01 -8.09042886e+01 -8.08547762e+01 -8.04839138e+01
 -8.01416187e+01 -7.98404716e+01 -7.97806032e+01 -7.93437947e+01
 -7.89340632e+01 -7.86319117e+01 -7.82524896e+01 -7.76395876e+01
 -7.74983541e+01 -7.70065797e+01 -7.64018897e+01 -7.63592934e+01
 -7.55939240e+01 -7.50882429e+01 -7.50296954e+01 -7.48307224e+01
 -7.44383369e+01 -7.41795646e+01 -7.41288702e+01 -7.38832899e+01
 -7.35268215e+01 -7.30055356e+01 -7.28580670e+01 -7.26136252e+01
 -7.23199016e+01 -7.20607879e+01 -7.10097190e+01 -7.05264494e+01
 -7.02497554e+01 -6.98788242e+01 -6.95155016e+01 -6.90105689e+01
 -6.88032812e+01 -6.85247369e+01 -6.82574483e+01 -6.81709241e+01
 -6.78589144e+01 -6.77543594e+01 -6.68669477e+01 -6.61275837e+01
 -6.58589998e+01 -6.53432270e+01 -6.53374190e+01 -6.50060709e+01
 -6.49762184e+01 -6.43151789e+01 -6.32463365e+01 -5.78572803e+01
 -5.78486331e+01 -5.76610527e+01 -5.71589430e+01 -5.63099047e+01
 -5.50587300e+01 -5.45877794e+01 -5.38140519e+01 -5.23998422e+01
 -5.20708438e+01 -5.03190683e+01 -4.94482556e+01 -4.87197115e+01
 -4.55497329e+01 -4.52135310e+01 -4.44901949e+01 -4.39133519e+01
 -4.35323363e+01 -4.26845918e+01 -4.13106519e+01 -3.93647734e+01
 -3.84347912e+01 -3.72825558e+01 -3.65728483e+01 -3.64541601e+01
 -3.56366006e+01 -3.51896507e+01 -3.49277470e+01 -3.44876502e+01
 -3.36956904e+01 -2.95933148e+01 -2.77930868e+01 -2.71949370e+01
 -2.63456513e+01 -2.26604777e+01 -2.17769506e+01 -2.17096738e+01
 -2.11615803e+01 -2.04180093e+01 -2.01425951e+01 -2.01312764e+01
 -1.87912468e+01 -1.74207898e+01 -1.68901975e+01 -1.53629384e+01
 -1.44711839e+01 -1.39267768e+01 -1.12508710e+01 -7.28306957e+00
 -6.03798033e+00 -4.48405644e+00 -1.89633986e+00 -1.63608121e+00
 -1.43319012e+00  2.69474090e-01  5.32120974e-01  8.48755488e-01
  9.71479122e-01  3.13137341e+00  4.09388103e+00  4.23223568e+00
  4.38318042e+00  6.23806049e+00  6.83923461e+00  6.84166284e+00
  8.62917691e+00  1.29952266e+01  1.34336148e+01  1.51800256e+01
  1.58979399e+01  1.65923688e+01  1.89453788e+01  1.94910199e+01
  1.94916920e+01  1.96225348e+01  2.05305881e+01  2.15104917e+01
  2.41170029e+01  2.43710703e+01  2.58660332e+01  2.60724768e+01
  2.74672520e+01  3.05892332e+01  3.27442577e+01  3.36843458e+01
  3.37899159e+01  3.41611587e+01  3.42153602e+01  3.50530887e+01
  3.72456187e+01  3.99602846e+01  4.23875378e+01  4.39159825e+01
  4.42327291e+01  4.48500197e+01  4.83776686e+01  4.88736658e+01
  5.51223952e+01  5.53688861e+01  5.66357258e+01  5.77674455e+01
  5.78923918e+01  5.86309323e+01  6.02906417e+01  6.47458201e+01
  6.49603340e+01  6.51680641e+01  6.68749790e+01  6.76039372e+01
  6.78694515e+01  6.85395993e+01  6.85552576e+01  6.99023624e+01
  7.00722782e+01  7.10566011e+01  7.18958063e+01  7.42631002e+01
  7.64437617e+01  7.80250544e+01  8.00743291e+01  8.04122550e+01
  8.13002353e+01  8.32565101e+01  8.33459185e+01  8.73487076e+01
  8.87279953e+01  9.04900629e+01  9.22074020e+01  9.22656205e+01
  9.30086833e+01  9.30344412e+01  9.73584524e+01  9.78474792e+01
  9.87173322e+01  9.92848455e+01  1.01506611e+02  1.02399087e+02
  1.03162159e+02  1.03450957e+02  1.03768508e+02  1.04406383e+02
  1.05720971e+02  1.07092483e+02  1.07710068e+02  1.11924895e+02
  1.13547690e+02  1.14761007e+02  1.16179984e+02  1.16837433e+02
  1.21326132e+02  1.25537775e+02  1.33048584e+02  1.33573303e+02
  1.36511921e+02  1.37758285e+02  1.39131419e+02  1.41638120e+02
  1.41844812e+02  1.42424512e+02  1.43496609e+02  1.43510881e+02
  1.46199060e+02  1.46556236e+02  1.48382236e+02  1.48407567e+02
  1.48912536e+02  1.49165606e+02  1.50802776e+02  1.51584630e+02
  1.57633889e+02  1.57737232e+02  1.58956502e+02  1.63267115e+02
  1.64188964e+02  1.64960890e+02  1.66294281e+02  1.68205106e+02
  1.68399273e+02  1.69199237e+02  1.70621405e+02  1.71268575e+02
  1.72966312e+02  1.74644664e+02  1.74710408e+02  1.79019423e+02
  1.81095791e+02  1.82868270e+02  1.82965600e+02  1.89562752e+02
  1.89574834e+02  1.89672310e+02  1.91027077e+02  1.94950274e+02
  1.99518927e+02  2.01784542e+02  2.04149936e+02  2.04559881e+02
  2.05267194e+02  2.06118964e+02  2.08133270e+02  2.09047338e+02
  2.09294404e+02  2.09568207e+02  2.10601509e+02  2.13399135e+02
  2.15422119e+02  2.21445846e+02  2.22947849e+02  2.24805184e+02
  2.25145886e+02  2.26628167e+02  2.28189327e+02  2.28893032e+02
  2.33637454e+02  2.36284670e+02  2.36684500e+02  2.37351876e+02
  2.39673843e+02  2.40087383e+02  2.42298224e+02  2.44455371e+02
  2.45745089e+02  2.47396543e+02  2.49133124e+02  2.50199516e+02
  2.50956709e+02  2.51005724e+02  2.52138755e+02  2.56224103e+02
  2.56233725e+02  2.57266362e+02  2.58179264e+02  2.60083093e+02
  2.60765499e+02  2.62492064e+02  2.63648761e+02  2.65056624e+02
  2.66105443e+02  2.66165893e+02  2.66927189e+02  2.73760950e+02
  2.75046082e+02  2.76765168e+02  2.77043285e+02  2.78210634e+02
  2.78449570e+02  2.78926353e+02  2.82206256e+02  2.82325028e+02
  2.84101176e+02  2.86464187e+02  2.86772706e+02  2.86931290e+02
  2.87806515e+02  2.88479049e+02  2.88826115e+02  2.89886738e+02
  2.90002505e+02  2.90633014e+02  2.90673531e+02  2.91437334e+02
  2.91755546e+02  2.92387265e+02  2.93628281e+02  2.94666653e+02
  2.94932601e+02  2.96188315e+02  2.96502288e+02  2.96822454e+02
  2.97975474e+02  2.98212430e+02  3.00668612e+02  3.01696582e+02
  3.01876822e+02  3.02112561e+02  3.04409455e+02  3.04449763e+02
  3.06384175e+02  3.06727103e+02  3.07812719e+02  3.08096964e+02
  3.10210664e+02  3.11984654e+02  3.12755351e+02  3.14574421e+02
  3.17598550e+02  3.17861441e+02  3.19020009e+02  3.20094631e+02
  3.20899374e+02  3.21383177e+02  3.23170946e+02  3.23359694e+02
  3.23678838e+02  3.24019798e+02  3.26023906e+02  3.26326863e+02
  3.27089227e+02  3.27093677e+02  3.29794865e+02  3.30083446e+02
  3.31713138e+02  3.33040703e+02  3.34824512e+02  3.34942982e+02
  3.36264366e+02  3.41586114e+02  3.42427604e+02  3.43392884e+02
  3.45169167e+02  3.45467793e+02  3.50754649e+02  3.51098770e+02
  3.52589335e+02  3.52938639e+02  3.53122732e+02  3.57327858e+02
  3.57432774e+02  3.60230626e+02  3.60404347e+02  3.60494199e+02
  3.63639297e+02  3.65528706e+02  3.66902709e+02  3.67026251e+02
  3.67221496e+02  3.68309635e+02  3.68871842e+02  3.70497366e+02
  3.70665008e+02  3.71474657e+02  3.72391756e+02  3.73902990e+02
  3.74044271e+02  3.75975458e+02  3.76103509e+02  3.78576962e+02
  3.79102861e+02  3.81301733e+02  3.83305336e+02  3.84246014e+02
  3.89847138e+02  3.89945653e+02  3.94941529e+02  3.96037631e+02
  4.06941403e+02  4.07718412e+02  4.13881992e+02  4.14385640e+02
  4.15231967e+02  4.18896984e+02  4.19530524e+02  4.20454152e+02
  4.20949962e+02  4.29050163e+02  4.31102150e+02  4.34196834e+02
  4.34808157e+02  4.44554017e+02  4.45936030e+02  4.67300177e+02
  4.73149208e+02]
sorted_val_rewards: [-145.72756725 -114.76315562 -101.56590801  -89.80503494  -81.576704
  -80.25156009  -78.65435118  -78.41738158  -78.05157795  -74.63368449
  -67.70332814  -63.1014303   -59.23492089  -36.37950117  -33.34809777
  -20.05488751  -16.11437641   -1.25215708   -0.57284213    8.10954932
   27.01133577   27.57515801   28.52857496   34.86639611   39.92673927
   50.52841486   55.66923779   55.92026357   59.3436812    81.89014686
   91.33884406  111.62538714  158.45436886  158.93814401  171.50931422
  185.35424212  214.62630405  235.04407254  237.90451472  240.74621709
  247.42473325  266.35869922  284.93230584  291.329522    303.57264607
  323.0739022   338.0642504   361.8462674   390.75171849  400.04134269
  403.13796959  414.4330114   423.13558716]
maximum traj length 200
maximum traj length 200
num train_obs 7140
num train_labels 7140
num val_obs 1378
num val_labels 1378
ModuleList(
  (0): Linear(in_features=19, out_features=128, bias=True)
  (1): Linear(in_features=128, out_features=64, bias=True)
  (2): Linear(in_features=64, out_features=1, bias=False)
)
Training reward model from scratch...
Total number of parameters: 10880
Number of trainable paramters: 10880
device: cuda:3
end of epoch 0: val_loss 0.21866131455288682, val_acc 0.9201741654571843
trigger times: 0
saving model weights...
end of epoch 1: val_loss 0.1828571321482363, val_acc 0.9317851959361393
trigger times: 0
saving model weights...
end of epoch 2: val_loss 0.18105749739085308, val_acc 0.9310595065312046
trigger times: 0
saving model weights...
end of epoch 3: val_loss 0.1777301211221915, val_acc 0.9354136429608128
trigger times: 0
saving model weights...
end of epoch 4: val_loss 0.20861170278460017, val_acc 0.9274310595065312
trigger times: 1
end of epoch 5: val_loss 0.18675663167937606, val_acc 0.9325108853410741
trigger times: 2
end of epoch 6: val_loss 0.1972261918624788, val_acc 0.9317851959361393
trigger times: 3
end of epoch 7: val_loss 0.19313611430704028, val_acc 0.9325108853410741
trigger times: 4
end of epoch 8: val_loss 0.1978880131612698, val_acc 0.9274310595065312
trigger times: 5
end of epoch 9: val_loss 0.19763688029452578, val_acc 0.9339622641509434
trigger times: 6
end of epoch 10: val_loss 0.2011139850221598, val_acc 0.93033381712627
trigger times: 7
end of epoch 11: val_loss 0.1896160821562637, val_acc 0.9332365747460087
trigger times: 8
end of epoch 12: val_loss 0.2199860711012004, val_acc 0.9281567489114659
trigger times: 9
end of epoch 13: val_loss 0.19572879282324498, val_acc 0.9332365747460087
trigger times: 10
Early stopping.
0 -16.19523329543881 -145.7275672542709
1 -14.846973225474358 -114.76315561697069
2 -10.578999660443515 -101.56590801090363
3 -10.593623212072998 -89.80503494314031
4 -12.77997815492563 -81.57670400275852
5 -9.182793403510004 -80.25156008912637
6 -11.543011310743168 -78.65435117644392
7 -11.705275830463506 -78.41738157747275
8 -10.784712801221758 -78.05157794611979
9 -17.193937562406063 -74.63368449200075
10 -8.6177007817314 -67.70332814138712
11 -6.735960476100445 -63.101430300225374
12 -6.249431125703268 -59.23492089348715
13 -5.223151202779263 -36.37950117215486
14 -1.704283174360171 -33.34809776864483
15 -5.636934382957406 -20.05488751117805
16 -4.22283951099962 -16.114376409083132
17 -3.213862381875515 -1.2521570827697304
18 -4.204097676090896 -0.5728421252635456
19 -3.3766890768893063 8.109549320576296
20 -0.8699213120853528 27.01133577467053
21 -4.462880096853041 27.575158010086625
22 -1.6828773756860755 28.52857496230795
23 -0.3429319653660059 34.866396111511285
24 -2.2680180459283292 39.92673927109536
25 -1.144054789794609 50.52841485696464
26 -0.548629477081704 55.66923778730837
27 2.531814335845411 55.92026357237822
28 0.6216449470521184 59.34368120208799
29 1.3766313954256475 81.89014686183334
30 2.079034413480258 91.33884405649833
31 3.551061649573967 111.62538713568061
32 3.5597400534315966 158.4543688649787
33 4.387572013209137 158.9381440127044
34 4.262834252323955 171.5093142215239
35 3.4947397171054035 185.35424212127486
36 11.509807071648538 214.6263040548001
37 6.331197588471696 235.04407254128563
38 4.946999469771981 237.90451471965713
39 5.350106188328937 240.74621709213264
40 5.021453329361975 247.4247332535776
41 9.403540120227262 266.3586992205008
42 8.820522808237001 284.9323058364518
43 6.26820024382323 291.32952200448
44 8.164897196460515 303.57264606950895
45 8.44902494433336 323.07390219598693
46 10.334423747612163 338.06425040083286
47 11.53052799217403 361.84626739841684
48 12.35478257224895 390.7517184882046
49 13.04799289535731 400.0413426933392
50 12.04554032732267 403.13796958654353
51 10.774952548090369 414.43301139651703
52 6.738676148466766 423.1355871564197
train accuracy: 0.9637254901960784
validation accuracy: 0.9332365747460087
demos: (580, 200, 19)
demo_rewards: (580,)
sorted_train_rewards: [-1.68281407e+02 -1.45727567e+02 -1.39123043e+02 -1.33973547e+02
 -1.25906495e+02 -1.23737226e+02 -1.18441257e+02 -1.15454518e+02
 -1.15278652e+02 -1.14763156e+02 -1.14085096e+02 -1.12885489e+02
 -1.11179560e+02 -1.10248073e+02 -1.06969949e+02 -1.06298076e+02
 -1.06264986e+02 -1.05880618e+02 -1.03152139e+02 -1.01565908e+02
 -1.00495946e+02 -1.00348353e+02 -9.79572956e+01 -9.72448577e+01
 -9.60581398e+01 -9.47527923e+01 -9.42721572e+01 -9.39936009e+01
 -9.08470847e+01 -9.02123147e+01 -8.99058909e+01 -8.98050349e+01
 -8.97948128e+01 -8.96992821e+01 -8.92193126e+01 -8.91949177e+01
 -8.88554189e+01 -8.76650055e+01 -8.71119989e+01 -8.58361739e+01
 -8.49833280e+01 -8.48467849e+01 -8.48168829e+01 -8.46166276e+01
 -8.42859587e+01 -8.36189262e+01 -8.33560899e+01 -8.33044003e+01
 -8.33041646e+01 -8.32372845e+01 -8.31560919e+01 -8.31235878e+01
 -8.30448910e+01 -8.27726085e+01 -8.22617211e+01 -8.20321572e+01
 -8.18475632e+01 -8.17518956e+01 -8.17354198e+01 -8.15767040e+01
 -8.14466377e+01 -8.14089062e+01 -8.13310098e+01 -8.10634463e+01
 -8.10067480e+01 -8.09655594e+01 -8.09042886e+01 -8.09023692e+01
 -8.08547762e+01 -8.02515601e+01 -8.02024207e+01 -8.01416187e+01
 -7.98404716e+01 -7.93437947e+01 -7.89340632e+01 -7.86543512e+01
 -7.86319117e+01 -7.84173816e+01 -7.82524896e+01 -7.80515779e+01
 -7.76395876e+01 -7.74983541e+01 -7.70065797e+01 -7.64018897e+01
 -7.63592934e+01 -7.55939240e+01 -7.51711716e+01 -7.50882429e+01
 -7.50296954e+01 -7.48307224e+01 -7.46336845e+01 -7.44383369e+01
 -7.41544354e+01 -7.41288702e+01 -7.38832899e+01 -7.35268215e+01
 -7.32618614e+01 -7.30055356e+01 -7.28580670e+01 -7.26136252e+01
 -7.23199016e+01 -7.10097190e+01 -7.05264494e+01 -7.03450158e+01
 -7.02497554e+01 -6.98788242e+01 -6.95155016e+01 -6.90105689e+01
 -6.88032812e+01 -6.85247369e+01 -6.81709241e+01 -6.78589144e+01
 -6.77543594e+01 -6.77033281e+01 -6.76443653e+01 -6.74475659e+01
 -6.68669477e+01 -6.61275837e+01 -6.58589998e+01 -6.53432270e+01
 -6.53374190e+01 -6.50060709e+01 -6.49762184e+01 -6.46733176e+01
 -6.46556530e+01 -6.43151789e+01 -6.32463365e+01 -6.31014303e+01
 -6.16272752e+01 -6.09635471e+01 -5.93036560e+01 -5.92349209e+01
 -5.91346375e+01 -5.89886554e+01 -5.78572803e+01 -5.78486331e+01
 -5.76610527e+01 -5.72707538e+01 -5.72410326e+01 -5.71589430e+01
 -5.70673487e+01 -5.63099047e+01 -5.62314577e+01 -5.56799241e+01
 -5.56548146e+01 -5.52392424e+01 -5.52097780e+01 -5.50587300e+01
 -5.48715185e+01 -5.48384821e+01 -5.45877794e+01 -5.36183199e+01
 -5.30838193e+01 -5.29908697e+01 -5.20921978e+01 -5.20708438e+01
 -5.16824478e+01 -5.03190683e+01 -4.99156894e+01 -4.94934962e+01
 -4.93567459e+01 -4.76894927e+01 -4.75118770e+01 -4.55497329e+01
 -4.52135310e+01 -4.44901949e+01 -4.39133519e+01 -4.35323363e+01
 -4.33971131e+01 -4.26911237e+01 -4.26845918e+01 -4.13106519e+01
 -3.93647734e+01 -3.84933469e+01 -3.72825558e+01 -3.65728483e+01
 -3.64541601e+01 -3.63795012e+01 -3.56366006e+01 -3.51896507e+01
 -3.49277470e+01 -3.44876502e+01 -3.33480978e+01 -2.95933148e+01
 -2.77930868e+01 -2.71949370e+01 -2.63456513e+01 -2.40905991e+01
 -2.32248258e+01 -2.26604777e+01 -2.17769506e+01 -2.04180093e+01
 -2.01425951e+01 -2.01312764e+01 -1.87912468e+01 -1.74207898e+01
 -1.68901975e+01 -1.61143764e+01 -1.53629384e+01 -1.44711839e+01
 -1.12508710e+01 -7.28306957e+00 -6.03798033e+00 -4.48405644e+00
 -1.89633986e+00 -1.63608121e+00 -1.43319012e+00 -1.25215708e+00
 -5.72842125e-01  2.69474090e-01  5.32120974e-01  8.48755488e-01
  9.71479122e-01  3.13137341e+00  4.09388103e+00  4.23223568e+00
  4.38318042e+00  6.23806049e+00  6.83923461e+00  6.84166284e+00
  8.10954932e+00  8.62917691e+00  1.29952266e+01  1.34336148e+01
  1.51800256e+01  1.58979399e+01  1.65923688e+01  1.89453788e+01
  1.94910199e+01  1.94916920e+01  1.96225348e+01  2.05305881e+01
  2.15104917e+01  2.41170029e+01  2.43710703e+01  2.58660332e+01
  2.60724768e+01  2.70113358e+01  2.74672520e+01  2.75751580e+01
  2.85285750e+01  3.05892332e+01  3.27442577e+01  3.36843458e+01
  3.37899159e+01  3.41611587e+01  3.42153602e+01  3.48663961e+01
  3.50530887e+01  3.72456187e+01  3.99267393e+01  3.99602846e+01
  4.23875378e+01  4.39159825e+01  4.42327291e+01  4.48500197e+01
  4.83776686e+01  4.88736658e+01  5.05284149e+01  5.51223952e+01
  5.56692378e+01  5.59202636e+01  5.66357258e+01  5.77674455e+01
  5.78923918e+01  5.93436812e+01  6.02906417e+01  6.47458201e+01
  6.49603340e+01  6.51680641e+01  6.76039372e+01  6.78694515e+01
  6.85395993e+01  6.85552576e+01  6.99023624e+01  7.00722782e+01
  7.10566011e+01  7.18958063e+01  7.42631002e+01  7.64437617e+01
  7.80250544e+01  8.00743291e+01  8.04122550e+01  8.13002353e+01
  8.18901469e+01  8.32565101e+01  8.33459185e+01  8.87279953e+01
  9.04900629e+01  9.22656205e+01  9.30086833e+01  9.30344412e+01
  9.73584524e+01  9.78474792e+01  9.87173322e+01  9.92848455e+01
  1.01506611e+02  1.02399087e+02  1.03162159e+02  1.03450957e+02
  1.03768508e+02  1.04406383e+02  1.05720971e+02  1.07092483e+02
  1.07710068e+02  1.11924895e+02  1.13547690e+02  1.14761007e+02
  1.16179984e+02  1.16837433e+02  1.21326132e+02  1.25537775e+02
  1.33573303e+02  1.36511921e+02  1.37758285e+02  1.39131419e+02
  1.41638120e+02  1.41844812e+02  1.42424512e+02  1.43496609e+02
  1.43510881e+02  1.46199060e+02  1.46556236e+02  1.48382236e+02
  1.48407567e+02  1.48912536e+02  1.49165606e+02  1.50802776e+02
  1.51584630e+02  1.57633889e+02  1.57737232e+02  1.58454369e+02
  1.58938144e+02  1.63267115e+02  1.64960890e+02  1.66294281e+02
  1.68399273e+02  1.69199237e+02  1.70621405e+02  1.71268575e+02
  1.71509314e+02  1.72966312e+02  1.74710408e+02  1.79019423e+02
  1.81095791e+02  1.82868270e+02  1.89562752e+02  1.89574834e+02
  1.89672310e+02  1.91027077e+02  1.94950274e+02  1.99518927e+02
  2.01784542e+02  2.04149936e+02  2.05267194e+02  2.06118964e+02
  2.08133270e+02  2.09047338e+02  2.09294404e+02  2.09568207e+02
  2.13399135e+02  2.15422119e+02  2.21445846e+02  2.22947849e+02
  2.24805184e+02  2.25145886e+02  2.26628167e+02  2.28189327e+02
  2.28893032e+02  2.33637454e+02  2.36284670e+02  2.36684500e+02
  2.37351876e+02  2.39673843e+02  2.40087383e+02  2.40746217e+02
  2.42298224e+02  2.44455371e+02  2.45745089e+02  2.47396543e+02
  2.47424733e+02  2.49133124e+02  2.50199516e+02  2.50956709e+02
  2.51005724e+02  2.52138755e+02  2.56224103e+02  2.56233725e+02
  2.57266362e+02  2.58179264e+02  2.60083093e+02  2.60765499e+02
  2.62492064e+02  2.63648761e+02  2.65056624e+02  2.66105443e+02
  2.66165893e+02  2.66358699e+02  2.66927189e+02  2.73760950e+02
  2.75046082e+02  2.76765168e+02  2.77043285e+02  2.78210634e+02
  2.78449570e+02  2.82206256e+02  2.82325028e+02  2.84101176e+02
  2.84932306e+02  2.86464187e+02  2.86772706e+02  2.86931290e+02
  2.87806515e+02  2.88479049e+02  2.88826115e+02  2.89886738e+02
  2.90002505e+02  2.90633014e+02  2.90673531e+02  2.91437334e+02
  2.91755546e+02  2.92387265e+02  2.93628281e+02  2.94666653e+02
  2.94932601e+02  2.96188315e+02  2.96822454e+02  2.97975474e+02
  2.98212430e+02  3.00668612e+02  3.01696582e+02  3.01876822e+02
  3.02112561e+02  3.03572646e+02  3.04409455e+02  3.06384175e+02
  3.06727103e+02  3.07812719e+02  3.10210664e+02  3.11984654e+02
  3.12755351e+02  3.14574421e+02  3.17598550e+02  3.17861441e+02
  3.20094631e+02  3.20899374e+02  3.21383177e+02  3.23170946e+02
  3.23359694e+02  3.23678838e+02  3.24019798e+02  3.26023906e+02
  3.26326863e+02  3.27089227e+02  3.27093677e+02  3.29794865e+02
  3.30083446e+02  3.31713138e+02  3.34824512e+02  3.34942982e+02
  3.36264366e+02  3.38064250e+02  3.41586114e+02  3.42427604e+02
  3.43392884e+02  3.45169167e+02  3.45467793e+02  3.50754649e+02
  3.51098770e+02  3.52589335e+02  3.52938639e+02  3.53122732e+02
  3.57327858e+02  3.57432774e+02  3.60230626e+02  3.60404347e+02
  3.60494199e+02  3.61846267e+02  3.63639297e+02  3.65528706e+02
  3.66902709e+02  3.67026251e+02  3.67221496e+02  3.68309635e+02
  3.68871842e+02  3.70497366e+02  3.70665008e+02  3.71474657e+02
  3.72391756e+02  3.73902990e+02  3.74044271e+02  3.75975458e+02
  3.76103509e+02  3.78576962e+02  3.79102861e+02  3.81301733e+02
  3.83305336e+02  3.84246014e+02  3.89847138e+02  3.89945653e+02
  3.90751718e+02  3.94941529e+02  3.96037631e+02  4.00041343e+02
  4.03137970e+02  4.06941403e+02  4.07718412e+02  4.14385640e+02
  4.14433011e+02  4.15231967e+02  4.18896984e+02  4.19530524e+02
  4.20454152e+02  4.20949962e+02  4.29050163e+02  4.31102150e+02
  4.34196834e+02  4.34808157e+02  4.44554017e+02  4.45936030e+02
  4.67300177e+02  4.73149208e+02]
sorted_val_rewards: [-110.5796088  -100.66675527  -97.22576794  -86.60279916  -84.09148559
  -81.95553196  -80.48391381  -79.7806032   -75.75381625  -74.17956458
  -72.06078791  -68.2574483   -60.31379783  -58.03648898  -56.40959826
  -53.81405192  -53.14960195  -52.39984223  -51.39094427  -49.44825563
  -48.7197115   -42.50201606  -40.37026508  -38.43479124  -33.69569039
  -21.70967377  -21.16158033  -20.05488751  -13.92677682   55.36888608
   58.63093231   66.87497899   87.34870755   91.33884406   92.20740196
  111.62538714  133.04858367  158.95650203  164.18896384  168.20510566
  174.64466435  182.96560002  185.35424212  204.55988076  210.60150901
  214.62630405  235.04407254  237.90451472  278.92635304  291.329522
  296.50228795  304.44976264  308.09696351  319.02000876  323.0739022
  333.04070292  413.8819924   423.13558716]
maximum traj length 200
maximum traj length 200
num train_obs 7140
num train_labels 7140
num val_obs 1653
num val_labels 1653
ModuleList(
  (0): Linear(in_features=19, out_features=128, bias=True)
  (1): Linear(in_features=128, out_features=64, bias=True)
  (2): Linear(in_features=64, out_features=1, bias=False)
)
Training reward model from scratch...
Total number of parameters: 10880
Number of trainable paramters: 10880
device: cuda:2
end of epoch 0: val_loss 0.374308918111982, val_acc 0.837870538415003
trigger times: 0
saving model weights...
end of epoch 1: val_loss 0.29549899957681147, val_acc 0.8626739261947973
trigger times: 0
saving model weights...
end of epoch 2: val_loss 0.26492643001857763, val_acc 0.8784029038112523
trigger times: 0
saving model weights...
end of epoch 3: val_loss 0.2544498016483688, val_acc 0.8832425892317
trigger times: 0
saving model weights...
end of epoch 4: val_loss 0.24589583825013306, val_acc 0.8880822746521476
trigger times: 0
saving model weights...
end of epoch 5: val_loss 0.22612224473890663, val_acc 0.9019963702359347
trigger times: 0
saving model weights...
end of epoch 6: val_loss 0.22869032447810944, val_acc 0.9019963702359347
trigger times: 1
end of epoch 7: val_loss 0.2151042112647668, val_acc 0.9038112522686026
trigger times: 0
saving model weights...
end of epoch 8: val_loss 0.2159856262713428, val_acc 0.9050211736237145
trigger times: 1
end of epoch 9: val_loss 0.20987071030021284, val_acc 0.9050211736237145
trigger times: 0
saving model weights...
end of epoch 10: val_loss 0.2723791892560216, val_acc 0.8953418027828192
trigger times: 1
end of epoch 11: val_loss 0.23333923725172945, val_acc 0.9032062915910466
trigger times: 2
end of epoch 12: val_loss 0.2268169464606462, val_acc 0.9007864488808227
trigger times: 3
end of epoch 13: val_loss 0.26461545392836183, val_acc 0.8941318814277072
trigger times: 4
end of epoch 14: val_loss 0.21065502453584323, val_acc 0.9104658197217181
trigger times: 5
end of epoch 15: val_loss 0.20696612009190593, val_acc 0.9104658197217181
trigger times: 0
saving model weights...
end of epoch 16: val_loss 0.25828151274313793, val_acc 0.9050211736237145
trigger times: 1
end of epoch 17: val_loss 0.20866529779804235, val_acc 0.91167574107683
trigger times: 2
end of epoch 18: val_loss 0.20521150439954874, val_acc 0.9165154264972777
trigger times: 0
saving model weights...
end of epoch 19: val_loss 0.22862832291408336, val_acc 0.9092558983666061
trigger times: 1
end of epoch 20: val_loss 0.21878645602489027, val_acc 0.9104658197217181
trigger times: 2
end of epoch 21: val_loss 0.23811049898414738, val_acc 0.9086509376890503
trigger times: 3
end of epoch 22: val_loss 0.21296984550171807, val_acc 0.9140955837870538
trigger times: 4
end of epoch 23: val_loss 0.3315338669633332, val_acc 0.8947368421052632
trigger times: 5
end of epoch 24: val_loss 0.21261478601700962, val_acc 0.9122807017543859
trigger times: 6
end of epoch 25: val_loss 0.22060640156791758, val_acc 0.9140955837870538
trigger times: 7
end of epoch 26: val_loss 0.23664401103511568, val_acc 0.911070780399274
trigger times: 8
end of epoch 27: val_loss 0.2400344910376362, val_acc 0.9128856624319419
trigger times: 9
end of epoch 28: val_loss 0.23628201361945259, val_acc 0.9122807017543859
trigger times: 10
Early stopping.
0 -29.463743379339576 -110.57960879670767
1 -23.370687714777887 -100.66675527026814
2 -25.278587980981683 -97.22576794372458
3 -24.3633047984913 -86.60279916124063
4 -23.914508012123406 -84.09148558861091
5 -23.400101410225034 -81.95553196168702
6 -23.073877561837435 -80.48391381073206
7 -24.198663468007 -79.78060319968824
8 -13.096162905916572 -75.75381624631102
9 -21.31618894264102 -74.17956457851813
10 -21.88488769158721 -72.06078791443208
11 -17.49811115860939 -68.25744829885676
12 -17.660761615261436 -60.313797826751085
13 -19.65380079112947 -58.036488978191834
14 -17.061957613565028 -56.40959825555276
15 -16.515283322893083 -53.814051919860674
16 -16.643806288018823 -53.149601953071866
17 -16.76329708006233 -52.39984222917899
18 -18.810104115866125 -51.390944270301446
19 -18.54674408212304 -49.448255632219045
20 -17.648022327572107 -48.71971149808798
21 -16.474945476278663 -42.502016058492416
22 -17.72795134037733 -40.37026508029139
23 -14.334501783596352 -38.434791244243044
24 -16.45165968546644 -33.695690388277306
25 -12.377384530263953 -21.70967376674228
26 -15.771375994198024 -21.16158033494747
27 -16.749065555166453 -20.05488751117805
28 -14.798703310545534 -13.926776816108745
29 -10.583079368807375 55.36888607845635
30 -10.134368557482958 58.63093231433321
31 -7.5120585905388 66.874978985273
32 -7.9388611214235425 87.3487075539824
33 -8.647148392861709 91.33884405649833
34 -7.262580613372847 92.20740196031777
35 -8.79111555730924 111.62538713568061
36 -7.718581852386706 133.04858367101036
37 -8.225245726644062 158.95650203412697
38 -7.536561887245625 164.18896384382953
39 -6.895216539967805 168.20510565770127
40 -6.3386040683835745 174.64466434998226
41 -5.128325575497001 182.96560001968115
42 -6.155371842440218 185.35424212127486
43 -6.834060336928815 204.5598807600962
44 -4.890145142097026 210.60150900542712
45 -0.6802735340315849 214.6263040548001
46 -3.9695619507692754 235.04407254128563
47 -4.942469497676939 237.90451471965713
48 -1.4647952523082495 278.9263530439534
49 -4.276816284749657 291.32952200448
50 -0.03691045998129994 296.5022879483941
51 -4.65281667211093 304.44976263688386
52 -4.960403605131432 308.09696350962963
53 -1.7943087866296992 319.02000876252197
54 -5.033979953499511 323.07390219598693
55 -4.012266628444195 333.0407029156643
56 1.1361092082224786 413.88199240361837
57 -6.356677706353366 423.1355871564197
train accuracy: 0.9689075630252101
validation accuracy: 0.9122807017543859
demos: (630, 200, 19)
demo_rewards: (630,)
sorted_train_rewards: [-1.68281407e+02 -1.45727567e+02 -1.39123043e+02 -1.33973547e+02
 -1.25906495e+02 -1.23737226e+02 -1.18441257e+02 -1.15454518e+02
 -1.15278652e+02 -1.14763156e+02 -1.14085096e+02 -1.13083649e+02
 -1.12885489e+02 -1.11179560e+02 -1.10579609e+02 -1.10248073e+02
 -1.06969949e+02 -1.06298076e+02 -1.06264986e+02 -1.05880618e+02
 -1.03152139e+02 -1.00666755e+02 -1.00495946e+02 -1.00348353e+02
 -9.79572956e+01 -9.72448577e+01 -9.72257679e+01 -9.60581398e+01
 -9.47527923e+01 -9.43123527e+01 -9.42721572e+01 -9.39936009e+01
 -9.08470847e+01 -9.02123147e+01 -8.99058909e+01 -8.97948128e+01
 -8.96992821e+01 -8.92193126e+01 -8.91949177e+01 -8.76650055e+01
 -8.71119989e+01 -8.66027992e+01 -8.58361739e+01 -8.49833280e+01
 -8.48467849e+01 -8.48168829e+01 -8.46166276e+01 -8.42859587e+01
 -8.40914856e+01 -8.36189262e+01 -8.33560899e+01 -8.33044003e+01
 -8.33041646e+01 -8.32372845e+01 -8.31560919e+01 -8.31235878e+01
 -8.30448910e+01 -8.27726085e+01 -8.27088963e+01 -8.22617211e+01
 -8.20321572e+01 -8.19555320e+01 -8.18475632e+01 -8.17518956e+01
 -8.17354198e+01 -8.14466377e+01 -8.14089062e+01 -8.13310098e+01
 -8.10634463e+01 -8.10067480e+01 -8.09655594e+01 -8.09023692e+01
 -8.08547762e+01 -8.04839138e+01 -8.02515601e+01 -8.02024207e+01
 -8.01416187e+01 -7.98404716e+01 -7.97806032e+01 -7.93437947e+01
 -7.89340632e+01 -7.86319117e+01 -7.82524896e+01 -7.80515779e+01
 -7.76395876e+01 -7.74983541e+01 -7.72307729e+01 -7.70065797e+01
 -7.64018897e+01 -7.63592934e+01 -7.57538162e+01 -7.55939240e+01
 -7.51711716e+01 -7.50882429e+01 -7.50296954e+01 -7.48307224e+01
 -7.46336845e+01 -7.44685626e+01 -7.44383369e+01 -7.41544354e+01
 -7.41288702e+01 -7.38832899e+01 -7.35268215e+01 -7.33661111e+01
 -7.32618614e+01 -7.30055356e+01 -7.28580670e+01 -7.26136252e+01
 -7.23987039e+01 -7.23199016e+01 -7.20607879e+01 -7.20210671e+01
 -7.10097190e+01 -7.05264494e+01 -7.03450158e+01 -7.02497554e+01
 -7.01596671e+01 -6.98788242e+01 -6.95061164e+01 -6.90105689e+01
 -6.88032812e+01 -6.85247369e+01 -6.82574483e+01 -6.81709241e+01
 -6.78589144e+01 -6.77543594e+01 -6.77033281e+01 -6.76443653e+01
 -6.75394883e+01 -6.74475659e+01 -6.74353700e+01 -6.68669477e+01
 -6.61275837e+01 -6.58589998e+01 -6.53432270e+01 -6.53374190e+01
 -6.50060709e+01 -6.49762184e+01 -6.46733176e+01 -6.46556530e+01
 -6.43151789e+01 -6.32463365e+01 -6.31014303e+01 -6.20476538e+01
 -6.17141887e+01 -6.16272752e+01 -6.09635471e+01 -6.03137978e+01
 -5.93036560e+01 -5.91346375e+01 -5.89886554e+01 -5.80364890e+01
 -5.78572803e+01 -5.78486331e+01 -5.76610527e+01 -5.72707538e+01
 -5.72467477e+01 -5.72410326e+01 -5.71589430e+01 -5.71512411e+01
 -5.70673487e+01 -5.70524926e+01 -5.65556418e+01 -5.63099047e+01
 -5.62314577e+01 -5.59538536e+01 -5.56799241e+01 -5.52392424e+01
 -5.52097780e+01 -5.51792467e+01 -5.50587300e+01 -5.48715185e+01
 -5.48384821e+01 -5.46153554e+01 -5.45877794e+01 -5.38564488e+01
 -5.36183199e+01 -5.30838193e+01 -5.29908697e+01 -5.26922545e+01
 -5.23998422e+01 -5.20921978e+01 -5.20708438e+01 -5.16824478e+01
 -5.13909443e+01 -5.03776837e+01 -4.99156894e+01 -4.94934962e+01
 -4.94522694e+01 -4.94482556e+01 -4.93577751e+01 -4.87197115e+01
 -4.86496726e+01 -4.76894927e+01 -4.75118770e+01 -4.66916401e+01
 -4.52135310e+01 -4.44901949e+01 -4.39133519e+01 -4.35323363e+01
 -4.33971131e+01 -4.30266978e+01 -4.26911237e+01 -4.26845918e+01
 -4.25020161e+01 -4.16871226e+01 -4.13106519e+01 -4.08517201e+01
 -4.01480831e+01 -3.93647734e+01 -3.92668030e+01 -3.87749812e+01
 -3.84933469e+01 -3.84347912e+01 -3.82929167e+01 -3.72825558e+01
 -3.65728483e+01 -3.64541601e+01 -3.63795012e+01 -3.56366006e+01
 -3.54708438e+01 -3.51896507e+01 -3.49277470e+01 -3.44876502e+01
 -3.36956904e+01 -3.33480978e+01 -3.10582753e+01 -3.07693648e+01
 -3.01499952e+01 -2.99703118e+01 -2.95933148e+01 -2.77930868e+01
 -2.71949370e+01 -2.66941822e+01 -2.63456513e+01 -2.40905991e+01
 -2.32248258e+01 -2.26604777e+01 -2.17769506e+01 -2.17096738e+01
 -2.11615803e+01 -2.04180093e+01 -2.01425951e+01 -2.01312764e+01
 -2.00548875e+01 -1.87912468e+01 -1.74207898e+01 -1.68901975e+01
 -1.61143764e+01 -1.53629384e+01 -1.39267768e+01 -1.26529453e+01
 -1.12508710e+01 -6.03798033e+00 -4.48405644e+00 -1.89633986e+00
 -1.63608121e+00 -1.25215708e+00 -5.72842125e-01  2.69474090e-01
  5.32120974e-01  8.48755488e-01  9.71479122e-01  3.13137341e+00
  4.09388103e+00  4.23223568e+00  4.38318042e+00  6.23806049e+00
  6.83923461e+00  8.62917691e+00  1.29952266e+01  1.34336148e+01
  1.51800256e+01  1.58979399e+01  1.65923688e+01  1.89453788e+01
  1.94910199e+01  1.94916920e+01  1.96225348e+01  2.05305881e+01
  2.15104917e+01  2.43710703e+01  2.58660332e+01  2.60724768e+01
  2.70113358e+01  2.74672520e+01  2.75751580e+01  2.85285750e+01
  3.05892332e+01  3.27442577e+01  3.36843458e+01  3.37899159e+01
  3.42153602e+01  3.48663961e+01  3.50530887e+01  3.72456187e+01
  3.99267393e+01  4.23875378e+01  4.39159825e+01  4.42327291e+01
  4.48500197e+01  4.83776686e+01  4.88736658e+01  5.05284149e+01
  5.51223952e+01  5.53688861e+01  5.56692378e+01  5.59202636e+01
  5.66357258e+01  5.77674455e+01  5.78923918e+01  5.86309323e+01
  5.93436812e+01  6.02906417e+01  6.47458201e+01  6.49603340e+01
  6.51680641e+01  6.68749790e+01  6.76039372e+01  6.78694515e+01
  6.85395993e+01  6.85552576e+01  6.99023624e+01  7.00722782e+01
  7.10566011e+01  7.18958063e+01  7.42631002e+01  7.64437617e+01
  7.80250544e+01  8.00743291e+01  8.04122550e+01  8.13002353e+01
  8.18901469e+01  8.32565101e+01  8.87279953e+01  9.04900629e+01
  9.13388441e+01  9.22074020e+01  9.22656205e+01  9.30086833e+01
  9.30344412e+01  9.73584524e+01  9.78474792e+01  9.87173322e+01
  9.92848455e+01  1.01506611e+02  1.02399087e+02  1.03162159e+02
  1.03450957e+02  1.04406383e+02  1.05720971e+02  1.07092483e+02
  1.07710068e+02  1.11924895e+02  1.13547690e+02  1.14761007e+02
  1.16179984e+02  1.16837433e+02  1.21326132e+02  1.25537775e+02
  1.33048584e+02  1.36511921e+02  1.37758285e+02  1.39131419e+02
  1.41638120e+02  1.41844812e+02  1.42424512e+02  1.43496609e+02
  1.43510881e+02  1.46199060e+02  1.46556236e+02  1.48382236e+02
  1.48407567e+02  1.48912536e+02  1.49165606e+02  1.50802776e+02
  1.51584630e+02  1.57633889e+02  1.58454369e+02  1.58938144e+02
  1.58956502e+02  1.63267115e+02  1.64960890e+02  1.66294281e+02
  1.68205106e+02  1.68399273e+02  1.69199237e+02  1.72966312e+02
  1.74710408e+02  1.79019423e+02  1.81095791e+02  1.82868270e+02
  1.82965600e+02  1.85354242e+02  1.89562752e+02  1.89574834e+02
  1.89672310e+02  1.91027077e+02  1.94950274e+02  1.99518927e+02
  2.01784542e+02  2.04149936e+02  2.04559881e+02  2.05267194e+02
  2.06118964e+02  2.08133270e+02  2.09047338e+02  2.09294404e+02
  2.09568207e+02  2.10601509e+02  2.13399135e+02  2.15422119e+02
  2.21445846e+02  2.22947849e+02  2.24805184e+02  2.25145886e+02
  2.26628167e+02  2.28189327e+02  2.28893032e+02  2.33637454e+02
  2.36284670e+02  2.36684500e+02  2.37351876e+02  2.37904515e+02
  2.39673843e+02  2.40087383e+02  2.42298224e+02  2.44455371e+02
  2.45745089e+02  2.47396543e+02  2.47424733e+02  2.49133124e+02
  2.50199516e+02  2.51005724e+02  2.52138755e+02  2.56224103e+02
  2.56233725e+02  2.57266362e+02  2.58179264e+02  2.60083093e+02
  2.60765499e+02  2.62492064e+02  2.63648761e+02  2.65056624e+02
  2.66105443e+02  2.66165893e+02  2.66358699e+02  2.66927189e+02
  2.73760950e+02  2.75046082e+02  2.76765168e+02  2.78210634e+02
  2.78449570e+02  2.78926353e+02  2.82206256e+02  2.82325028e+02
  2.84101176e+02  2.84932306e+02  2.86464187e+02  2.86772706e+02
  2.86931290e+02  2.87806515e+02  2.88479049e+02  2.88826115e+02
  2.89886738e+02  2.90002505e+02  2.90633014e+02  2.90673531e+02
  2.91329522e+02  2.91437334e+02  2.92387265e+02  2.93628281e+02
  2.94666653e+02  2.94932601e+02  2.96188315e+02  2.96822454e+02
  2.97975474e+02  2.98212430e+02  3.00668612e+02  3.01696582e+02
  3.01876822e+02  3.02112561e+02  3.04409455e+02  3.04449763e+02
  3.06384175e+02  3.07812719e+02  3.10210664e+02  3.11984654e+02
  3.12755351e+02  3.14574421e+02  3.17598550e+02  3.17861441e+02
  3.21383177e+02  3.23170946e+02  3.23359694e+02  3.23678838e+02
  3.24019798e+02  3.26023906e+02  3.26326863e+02  3.27089227e+02
  3.27093677e+02  3.29794865e+02  3.30083446e+02  3.31713138e+02
  3.34824512e+02  3.34942982e+02  3.36264366e+02  3.38064250e+02
  3.41586114e+02  3.42427604e+02  3.43392884e+02  3.45169167e+02
  3.45467793e+02  3.50754649e+02  3.51098770e+02  3.52589335e+02
  3.52938639e+02  3.53122732e+02  3.57327858e+02  3.57432774e+02
  3.60230626e+02  3.60404347e+02  3.60494199e+02  3.61846267e+02
  3.63639297e+02  3.65528706e+02  3.66902709e+02  3.67026251e+02
  3.67221496e+02  3.68309635e+02  3.68871842e+02  3.70497366e+02
  3.70665008e+02  3.72391756e+02  3.73902990e+02  3.74044271e+02
  3.75975458e+02  3.76103509e+02  3.78576962e+02  3.79102861e+02
  3.81301733e+02  3.83305336e+02  3.89847138e+02  3.89945653e+02
  3.90751718e+02  3.94941529e+02  3.96037631e+02  4.00041343e+02
  4.03137970e+02  4.06941403e+02  4.07718412e+02  4.13881992e+02
  4.14385640e+02  4.14433011e+02  4.15231967e+02  4.18896984e+02
  4.19530524e+02  4.20454152e+02  4.20949962e+02  4.23135587e+02
  4.31102150e+02  4.34196834e+02  4.34808157e+02  4.44554017e+02
  4.45936030e+02  4.67300177e+02  4.73149208e+02]
sorted_val_rewards: [-110.65949653 -101.56590801  -89.80503494  -88.85541894  -81.576704
  -80.90428864  -78.65435118  -78.41738158  -75.37384196  -74.17956458
  -71.06175419  -69.51550162  -65.97860151  -59.23492089  -58.27275564
  -56.40959826  -55.65481462  -55.57648455  -53.81405192  -53.14960195
  -50.31906834  -49.35674589  -45.54973287  -42.42261407  -40.37026508
  -32.38082793  -14.47118388   -7.28306957   -1.43319012    6.84166284
    8.10954932   24.11700289   34.1611587    39.9602846    83.34591849
   87.34870755  103.76850791  111.62538714  133.57330341  157.73723206
  164.18896384  170.62140514  171.268575    171.50931422  174.64466435
  214.62630405  235.04407254  240.74621709  250.95670933  277.04328458
  291.75554554  296.50228795  303.57264607  306.72710293  308.09696351
  319.02000876  320.09463125  320.89937399  323.0739022   333.04070292
  371.47465709  384.24601373  429.05016307]
maximum traj length 200
maximum traj length 200
num train_obs 7140
num train_labels 7140
num val_obs 1953
num val_labels 1953
ModuleList(
  (0): Linear(in_features=19, out_features=128, bias=True)
  (1): Linear(in_features=128, out_features=64, bias=True)
  (2): Linear(in_features=64, out_features=1, bias=False)
)
Training reward model from scratch...
Total number of parameters: 10880
Number of trainable paramters: 10880
device: cuda:1
end of epoch 0: val_loss 0.3175621434005634, val_acc 0.8612391193036354
trigger times: 0
saving model weights...
end of epoch 1: val_loss 0.2959917229285601, val_acc 0.8699436763952892
trigger times: 0
saving model weights...
end of epoch 2: val_loss 0.25611711450263214, val_acc 0.894521249359959
trigger times: 0
saving model weights...
end of epoch 3: val_loss 0.2535764934757912, val_acc 0.9001536098310292
trigger times: 0
saving model weights...
end of epoch 4: val_loss 0.24708362856779773, val_acc 0.9062980030721967
trigger times: 0
saving model weights...
end of epoch 5: val_loss 0.23606316559635435, val_acc 0.9062980030721967
trigger times: 0
saving model weights...
end of epoch 6: val_loss 0.24396545256155555, val_acc 0.9119303635432667
trigger times: 1
end of epoch 7: val_loss 0.25599768543667584, val_acc 0.9114183307731695
trigger times: 2
end of epoch 8: val_loss 0.24747941449792837, val_acc 0.9129544290834614
trigger times: 3
end of epoch 9: val_loss 0.24388059428352796, val_acc 0.9175627240143369
trigger times: 4
end of epoch 10: val_loss 0.24173353347212959, val_acc 0.9129544290834614
trigger times: 5
end of epoch 11: val_loss 0.24102250305697856, val_acc 0.9165386584741424
trigger times: 6
end of epoch 12: val_loss 0.24645627039418322, val_acc 0.9170506912442397
trigger times: 7
end of epoch 13: val_loss 0.231755558437053, val_acc 0.9170506912442397
trigger times: 0
saving model weights...
end of epoch 14: val_loss 0.24320412645760325, val_acc 0.9170506912442397
trigger times: 1
end of epoch 15: val_loss 0.2572054481863118, val_acc 0.9155145929339478
trigger times: 2
end of epoch 16: val_loss 0.254228458296911, val_acc 0.9139784946236559
trigger times: 3
end of epoch 17: val_loss 0.2525068122286476, val_acc 0.9144905273937532
trigger times: 4
end of epoch 18: val_loss 0.2451651853223131, val_acc 0.9170506912442397
trigger times: 5
end of epoch 19: val_loss 0.25272012156966933, val_acc 0.9170506912442397
trigger times: 6
end of epoch 20: val_loss 0.2439283614012068, val_acc 0.9165386584741424
trigger times: 7
end of epoch 21: val_loss 0.2502376339137979, val_acc 0.9206349206349206
trigger times: 8
end of epoch 22: val_loss 0.2526178104129799, val_acc 0.9185867895545314
trigger times: 9
end of epoch 23: val_loss 0.24980749387021303, val_acc 0.9201228878648233
trigger times: 10
Early stopping.
0 -25.57269544713199 -110.65949653039394
1 -17.99466296751052 -101.56590801090363
2 -17.979559425264597 -89.80503494314031
3 -16.048658361280104 -88.85541893746874
4 -18.689873944967985 -81.57670400275852
5 -14.715815539471805 -80.90428864281907
6 -16.892601225990802 -78.65435117644392
7 -17.856443377328105 -78.41738157747275
8 -8.66072307061404 -75.37384196176407
9 -26.293752105906606 -74.17956457851813
10 -11.928669096902013 -71.06175418691683
11 -19.54563729884103 -69.5155016150423
12 -12.537288963329047 -65.97860151132187
13 -9.238883720827289 -59.23492089348715
14 -17.833315774798393 -58.27275563526456
15 -10.86014247033745 -56.40959825555276
16 -11.088012288324535 -55.65481462460547
17 -9.767938057892025 -55.576484552028425
18 -12.137941476074047 -53.814051919860674
19 -8.389389261603355 -53.149601953071866
20 -10.81896809884347 -50.319068336803426
21 -11.78988368762657 -49.35674589094064
22 -9.506020907079801 -45.549732871576744
23 -8.53591124061495 -42.42261407466323
24 -10.28211850207299 -40.37026508029139
25 -8.551393498666584 -32.38082793157759
26 -7.7885942599968985 -14.4711838787269
27 -8.858843648573384 -7.283069572135445
28 -3.0611602602439234 -1.4331901247897136
29 -6.149002252379432 6.841662837067183
30 -5.623995851376094 8.109549320576296
31 -3.686639385065064 24.11700288682878
32 -4.85765938134864 34.16115870293413
33 -5.6268465663306415 39.960284600421595
34 -2.6226734058000147 83.34591849094322
35 0.5350828934460878 87.3487075539824
36 -1.750791567377746 103.76850790553507
37 0.21525140316225588 111.62538713568061
38 0.7926532416604459 133.57330341432083
39 0.7303012309130281 157.73723206248386
40 1.574145537801087 164.18896384382953
41 -0.07563197409035638 170.62140513944783
42 1.9495764556340873 171.268574997029
43 2.9682975467294455 171.5093142215239
44 3.2794452477246523 174.64466434998226
45 9.057785773067735 214.6263040548001
46 5.408199128927663 235.04407254128563
47 2.1358565881382674 240.74621709213264
48 3.7023190446197987 250.9567093260553
49 6.954044694080949 277.0432845755202
50 6.6865769904106855 291.7555455443344
51 9.889028083533049 296.5022879483941
52 6.1556982840411365 303.57264606950895
53 6.022808116860688 306.72710292522027
54 4.306851940928027 308.09696350962963
55 8.608533485792577 319.02000876252197
56 8.284317781217396 320.0946312511725
57 10.880949434824288 320.89937398550296
58 4.186974638141692 323.07390219598693
59 6.241615095605084 333.0407029156643
60 10.137325114104897 371.4746570905087
61 5.772542061749846 384.24601373121897
62 12.341119731543586 429.0501630743836
train accuracy: 0.9770308123249299
validation accuracy: 0.9201228878648233
demos: (680, 200, 19)
demo_rewards: (680,)
sorted_train_rewards: [-1.68281407e+02 -1.66084341e+02 -1.45727567e+02 -1.39123043e+02
 -1.37845333e+02 -1.33973547e+02 -1.25906495e+02 -1.23737226e+02
 -1.18441257e+02 -1.17856300e+02 -1.15454518e+02 -1.15278652e+02
 -1.14763156e+02 -1.14085096e+02 -1.13083649e+02 -1.12885489e+02
 -1.12146910e+02 -1.11179560e+02 -1.10659497e+02 -1.10248073e+02
 -1.07796850e+02 -1.06298076e+02 -1.06264986e+02 -1.06194647e+02
 -1.05880618e+02 -1.05755306e+02 -1.05710644e+02 -1.03308510e+02
 -1.03128498e+02 -1.02168643e+02 -1.01914825e+02 -1.00495946e+02
 -1.00348353e+02 -1.00105887e+02 -9.94969387e+01 -9.72448577e+01
 -9.72257679e+01 -9.71191094e+01 -9.60581398e+01 -9.54974122e+01
 -9.54408991e+01 -9.47527923e+01 -9.43123527e+01 -9.42721572e+01
 -9.42025661e+01 -9.39936009e+01 -9.34382964e+01 -9.08470847e+01
 -9.02123147e+01 -8.99058909e+01 -8.98050349e+01 -8.97948128e+01
 -8.96992821e+01 -8.92193126e+01 -8.91949177e+01 -8.76849978e+01
 -8.76650055e+01 -8.71119989e+01 -8.66027992e+01 -8.58361739e+01
 -8.49917581e+01 -8.49833280e+01 -8.48818224e+01 -8.48467849e+01
 -8.48168829e+01 -8.46166276e+01 -8.42859587e+01 -8.40914856e+01
 -8.36189262e+01 -8.33560899e+01 -8.33044003e+01 -8.33041646e+01
 -8.32372845e+01 -8.31560919e+01 -8.31235878e+01 -8.30448910e+01
 -8.27726085e+01 -8.27088963e+01 -8.24520688e+01 -8.22617211e+01
 -8.20321572e+01 -8.19555320e+01 -8.18475632e+01 -8.17518956e+01
 -8.17354198e+01 -8.15767040e+01 -8.14466377e+01 -8.14089062e+01
 -8.13310098e+01 -8.11832023e+01 -8.10634463e+01 -8.10067480e+01
 -8.09480633e+01 -8.09042886e+01 -8.09023692e+01 -8.04839138e+01
 -8.02515601e+01 -8.02024207e+01 -8.01416187e+01 -7.98404716e+01
 -7.97806032e+01 -7.96078490e+01 -7.93437947e+01 -7.92990207e+01
 -7.89340632e+01 -7.86543512e+01 -7.86319117e+01 -7.84173816e+01
 -7.82524896e+01 -7.80515779e+01 -7.76395876e+01 -7.74983541e+01
 -7.72307729e+01 -7.70065797e+01 -7.68011207e+01 -7.66081978e+01
 -7.64018897e+01 -7.63592934e+01 -7.57538162e+01 -7.55939240e+01
 -7.54339866e+01 -7.53738420e+01 -7.51711716e+01 -7.50296954e+01
 -7.48307224e+01 -7.46336845e+01 -7.44685626e+01 -7.44383369e+01
 -7.41795646e+01 -7.41544354e+01 -7.41288702e+01 -7.38832899e+01
 -7.35268215e+01 -7.32618614e+01 -7.30055356e+01 -7.28580670e+01
 -7.26136252e+01 -7.23987039e+01 -7.23199016e+01 -7.20607879e+01
 -7.20210671e+01 -7.10617542e+01 -7.10097190e+01 -7.05264494e+01
 -7.02497554e+01 -7.01596671e+01 -6.98788242e+01 -6.96740503e+01
 -6.95155016e+01 -6.90105689e+01 -6.88032812e+01 -6.85247369e+01
 -6.82574483e+01 -6.81709241e+01 -6.77543594e+01 -6.77033281e+01
 -6.76443653e+01 -6.75394883e+01 -6.74475659e+01 -6.74353700e+01
 -6.68669477e+01 -6.65492663e+01 -6.61275837e+01 -6.59786015e+01
 -6.58589998e+01 -6.53432270e+01 -6.53374190e+01 -6.50060709e+01
 -6.49762184e+01 -6.48548796e+01 -6.46733176e+01 -6.46556530e+01
 -6.43151789e+01 -6.39037603e+01 -6.37307015e+01 -6.36521420e+01
 -6.32463365e+01 -6.31014303e+01 -6.30806145e+01 -6.20476538e+01
 -6.16272752e+01 -6.09635471e+01 -6.03137978e+01 -5.97369834e+01
 -5.93152861e+01 -5.93036560e+01 -5.92349209e+01 -5.91346375e+01
 -5.89886554e+01 -5.86833566e+01 -5.82727556e+01 -5.80364890e+01
 -5.78572803e+01 -5.78486331e+01 -5.77362429e+01 -5.76610527e+01
 -5.72707538e+01 -5.72467477e+01 -5.72410326e+01 -5.71589430e+01
 -5.71512411e+01 -5.70524926e+01 -5.65556418e+01 -5.64828247e+01
 -5.64095983e+01 -5.63099047e+01 -5.62314577e+01 -5.56799241e+01
 -5.56548146e+01 -5.52392424e+01 -5.52097780e+01 -5.51792467e+01
 -5.50587300e+01 -5.48715185e+01 -5.48384821e+01 -5.46153554e+01
 -5.45877794e+01 -5.38564488e+01 -5.38140519e+01 -5.32731841e+01
 -5.31496020e+01 -5.30838193e+01 -5.29908697e+01 -5.26922545e+01
 -5.20921978e+01 -5.20708438e+01 -5.16824478e+01 -5.13909443e+01
 -5.03776837e+01 -5.03190683e+01 -4.99156894e+01 -4.94934962e+01
 -4.93577751e+01 -4.93567459e+01 -4.87197115e+01 -4.76894927e+01
 -4.75118770e+01 -4.66916401e+01 -4.55497329e+01 -4.52135310e+01
 -4.44901949e+01 -4.39133519e+01 -4.35323363e+01 -4.33971131e+01
 -4.30266978e+01 -4.26911237e+01 -4.26845918e+01 -4.24226141e+01
 -4.16871226e+01 -4.13106519e+01 -4.08517201e+01 -4.03702651e+01
 -4.01480831e+01 -3.93647734e+01 -3.92668030e+01 -3.87749812e+01
 -3.84933469e+01 -3.84347912e+01 -3.82929167e+01 -3.72825558e+01
 -3.65728483e+01 -3.64541601e+01 -3.63795012e+01 -3.56366006e+01
 -3.54708438e+01 -3.51896507e+01 -3.49277470e+01 -3.44876502e+01
 -3.36956904e+01 -3.33480978e+01 -3.23808279e+01 -3.10582753e+01
 -3.07693648e+01 -3.01499952e+01 -2.99703118e+01 -2.95933148e+01
 -2.77930868e+01 -2.71949370e+01 -2.66941822e+01 -2.63456513e+01
 -2.40905991e+01 -2.32248258e+01 -2.26604777e+01 -2.17769506e+01
 -2.17096738e+01 -2.11615803e+01 -2.04180093e+01 -2.01425951e+01
 -2.01312764e+01 -2.00548875e+01 -1.87912468e+01 -1.74207898e+01
 -1.68901975e+01 -1.61143764e+01 -1.53629384e+01 -1.44711839e+01
 -1.39267768e+01 -1.26529453e+01 -1.12508710e+01 -7.28306957e+00
 -4.48405644e+00 -1.89633986e+00 -1.63608121e+00 -1.43319012e+00
 -1.25215708e+00 -5.72842125e-01  2.69474090e-01  5.32120974e-01
  8.48755488e-01  4.09388103e+00  4.23223568e+00  4.38318042e+00
  6.23806049e+00  6.83923461e+00  6.84166284e+00  8.10954932e+00
  8.62917691e+00  1.29952266e+01  1.34336148e+01  1.51800256e+01
  1.58979399e+01  1.65923688e+01  1.89453788e+01  1.94910199e+01
  1.94916920e+01  1.96225348e+01  2.05305881e+01  2.15104917e+01
  2.41170029e+01  2.43710703e+01  2.60724768e+01  2.70113358e+01
  2.74672520e+01  2.75751580e+01  2.85285750e+01  3.05892332e+01
  3.27442577e+01  3.36843458e+01  3.41611587e+01  3.42153602e+01
  3.48663961e+01  3.50530887e+01  3.72456187e+01  3.99267393e+01
  4.23875378e+01  4.39159825e+01  4.42327291e+01  4.48500197e+01
  4.83776686e+01  4.88736658e+01  5.05284149e+01  5.51223952e+01
  5.53688861e+01  5.56692378e+01  5.59202636e+01  5.66357258e+01
  5.78923918e+01  5.93436812e+01  6.02906417e+01  6.47458201e+01
  6.49603340e+01  6.51680641e+01  6.68749790e+01  6.76039372e+01
  6.78694515e+01  6.85395993e+01  6.85552576e+01  6.99023624e+01
  7.00722782e+01  7.18958063e+01  7.42631002e+01  7.64437617e+01
  7.80250544e+01  8.00743291e+01  8.04122550e+01  8.13002353e+01
  8.18901469e+01  8.32565101e+01  8.33459185e+01  8.73487076e+01
  8.87279953e+01  9.04900629e+01  9.13388441e+01  9.22074020e+01
  9.22656205e+01  9.30086833e+01  9.30344412e+01  9.73584524e+01
  9.78474792e+01  9.87173322e+01  9.92848455e+01  1.01506611e+02
  1.02399087e+02  1.03162159e+02  1.03450957e+02  1.03768508e+02
  1.04406383e+02  1.05720971e+02  1.07092483e+02  1.11625387e+02
  1.11924895e+02  1.16179984e+02  1.16837433e+02  1.21326132e+02
  1.25537775e+02  1.33048584e+02  1.33573303e+02  1.36511921e+02
  1.37758285e+02  1.39131419e+02  1.41638120e+02  1.41844812e+02
  1.43496609e+02  1.43510881e+02  1.46199060e+02  1.46556236e+02
  1.48382236e+02  1.48407567e+02  1.48912536e+02  1.49165606e+02
  1.50802776e+02  1.51584630e+02  1.57633889e+02  1.57737232e+02
  1.58454369e+02  1.58938144e+02  1.63267115e+02  1.64960890e+02
  1.66294281e+02  1.68399273e+02  1.69199237e+02  1.70621405e+02
  1.71268575e+02  1.71509314e+02  1.72966312e+02  1.74644664e+02
  1.74710408e+02  1.79019423e+02  1.81095791e+02  1.82868270e+02
  1.82965600e+02  1.89562752e+02  1.89574834e+02  1.89672310e+02
  1.91027077e+02  1.94950274e+02  1.99518927e+02  2.01784542e+02
  2.04149936e+02  2.05267194e+02  2.06118964e+02  2.08133270e+02
  2.09047338e+02  2.09294404e+02  2.09568207e+02  2.10601509e+02
  2.13399135e+02  2.15422119e+02  2.22947849e+02  2.24805184e+02
  2.25145886e+02  2.26628167e+02  2.28189327e+02  2.28893032e+02
  2.33637454e+02  2.35044073e+02  2.36284670e+02  2.36684500e+02
  2.37351876e+02  2.37904515e+02  2.39673843e+02  2.40087383e+02
  2.40746217e+02  2.42298224e+02  2.44455371e+02  2.45745089e+02
  2.47396543e+02  2.47424733e+02  2.49133124e+02  2.50199516e+02
  2.50956709e+02  2.51005724e+02  2.52138755e+02  2.56224103e+02
  2.56233725e+02  2.57266362e+02  2.58179264e+02  2.60083093e+02
  2.60765499e+02  2.62492064e+02  2.63648761e+02  2.65056624e+02
  2.66105443e+02  2.66165893e+02  2.66358699e+02  2.66927189e+02
  2.73760950e+02  2.75046082e+02  2.76765168e+02  2.77043285e+02
  2.78210634e+02  2.78449570e+02  2.78926353e+02  2.82206256e+02
  2.82325028e+02  2.84101176e+02  2.84932306e+02  2.86464187e+02
  2.86772706e+02  2.86931290e+02  2.87806515e+02  2.88479049e+02
  2.88826115e+02  2.89886738e+02  2.90002505e+02  2.90633014e+02
  2.90673531e+02  2.91329522e+02  2.91437334e+02  2.92387265e+02
  2.93628281e+02  2.94666653e+02  2.94932601e+02  2.96188315e+02
  2.96502288e+02  2.96822454e+02  2.97975474e+02  2.98212430e+02
  3.00668612e+02  3.01696582e+02  3.01876822e+02  3.02112561e+02
  3.03572646e+02  3.04409455e+02  3.04449763e+02  3.06384175e+02
  3.07812719e+02  3.08096964e+02  3.10210664e+02  3.11984654e+02
  3.12755351e+02  3.14574421e+02  3.17861441e+02  3.19020009e+02
  3.21383177e+02  3.23170946e+02  3.23359694e+02  3.23678838e+02
  3.24019798e+02  3.26023906e+02  3.26326863e+02  3.27093677e+02
  3.29794865e+02  3.30083446e+02  3.31713138e+02  3.34942982e+02
  3.42427604e+02  3.43392884e+02  3.45169167e+02  3.50754649e+02
  3.51098770e+02  3.52589335e+02  3.52938639e+02  3.53122732e+02
  3.57327858e+02  3.57432774e+02  3.60230626e+02  3.60404347e+02
  3.60494199e+02  3.61846267e+02  3.63639297e+02  3.65528706e+02
  3.66902709e+02  3.67026251e+02  3.67221496e+02  3.68309635e+02
  3.68871842e+02  3.70497366e+02  3.70665008e+02  3.71474657e+02
  3.72391756e+02  3.73902990e+02  3.74044271e+02  3.75975458e+02
  3.76103509e+02  3.78576962e+02  3.79102861e+02  3.83305336e+02
  3.89847138e+02  3.89945653e+02  3.90751718e+02  3.94941529e+02
  4.00041343e+02  4.03137970e+02  4.06941403e+02  4.07718412e+02
  4.13881992e+02  4.14385640e+02  4.14433011e+02  4.15231967e+02
  4.18896984e+02  4.19530524e+02  4.20454152e+02  4.20949962e+02
  4.29050163e+02  4.31102150e+02  4.34196834e+02  4.34808157e+02
  4.44554017e+02  4.45936030e+02  4.67300177e+02  4.73149208e+02]
sorted_val_rewards: [-142.84377032 -110.5796088  -106.96994903 -103.15213887 -101.56590801
 -100.66675527  -97.95729556  -89.19992786  -88.85541894  -83.50828903
  -80.96555936  -80.90046106  -80.85477622  -75.08824294  -73.36611109
  -70.34501576  -69.50611644  -67.85891444  -66.35219357  -66.11278451
  -61.71418871  -59.9933547   -57.06734865  -55.95385358  -55.57648455
  -53.61831987  -52.39984223  -49.4522694   -49.44825563  -48.64967263
  -42.50201606   -6.03798033    0.97147912    3.13137341   25.86603325
   33.78991594   39.9602846    57.7674455    58.63093231   71.05660111
  107.71006782  113.54769019  114.76100693  142.42451181  158.95650203
  164.18896384  168.20510566  185.35424212  204.55988076  214.62630405
  221.44584608  291.75554554  306.72710293  317.59854966  320.09463125
  320.89937399  323.0739022   327.08922691  333.04070292  334.82451182
  336.26436621  338.0642504   341.58611411  345.46779307  381.301733
  384.24601373  396.03763115  423.13558716]
maximum traj length 200
maximum traj length 200
num train_obs 7140
num train_labels 7140
num val_obs 2278
num val_labels 2278
ModuleList(
  (0): Linear(in_features=19, out_features=128, bias=True)
  (1): Linear(in_features=128, out_features=64, bias=True)
  (2): Linear(in_features=64, out_features=1, bias=False)
)
Training reward model from scratch...
Total number of parameters: 10880
Number of trainable paramters: 10880
device: cuda:1
end of epoch 0: val_loss 0.35134747845824565, val_acc 0.8582089552238806
trigger times: 0
saving model weights...
end of epoch 1: val_loss 0.30615333825530827, val_acc 0.8748902546093064
trigger times: 0
saving model weights...
end of epoch 2: val_loss 0.2987615668710993, val_acc 0.8819139596136962
trigger times: 0
saving model weights...
end of epoch 3: val_loss 0.272901777573166, val_acc 0.8867427568042142
trigger times: 0
saving model weights...
end of epoch 4: val_loss 0.25673730587868815, val_acc 0.8946444249341527
trigger times: 0
saving model weights...
end of epoch 5: val_loss 0.26845516744130327, val_acc 0.8915715539947322
trigger times: 1
end of epoch 6: val_loss 0.24215662462423312, val_acc 0.9047410008779632
trigger times: 0
saving model weights...
end of epoch 7: val_loss 0.25408053304659883, val_acc 0.8959613696224759
trigger times: 1
end of epoch 8: val_loss 0.24987296960445624, val_acc 0.8985952589991221
trigger times: 2
end of epoch 9: val_loss 0.24347970735988117, val_acc 0.9025460930640913
trigger times: 3
end of epoch 10: val_loss 0.27457117277209514, val_acc 0.8950834064969271
trigger times: 4
end of epoch 11: val_loss 0.2539321910562439, val_acc 0.9012291483757682
trigger times: 5
end of epoch 12: val_loss 0.23072274790142763, val_acc 0.9064969271290606
trigger times: 0
saving model weights...
end of epoch 13: val_loss 0.2627947763066655, val_acc 0.8999122036874452
trigger times: 1
end of epoch 14: val_loss 0.28210873242337714, val_acc 0.9016681299385426
trigger times: 2
end of epoch 15: val_loss 0.25904984364826783, val_acc 0.9003511852502195
trigger times: 3
end of epoch 16: val_loss 0.23195340331791475, val_acc 0.9056189640035118
trigger times: 4
end of epoch 17: val_loss 0.2307234482169505, val_acc 0.908252853380158
trigger times: 5
end of epoch 18: val_loss 0.2987683243845224, val_acc 0.897278314310799
trigger times: 6
end of epoch 19: val_loss 0.2514846714569931, val_acc 0.9012291483757682
trigger times: 7
end of epoch 20: val_loss 0.2382054464307545, val_acc 0.9086918349429324
trigger times: 8
end of epoch 21: val_loss 0.25855106582490167, val_acc 0.9043020193151887
trigger times: 9
end of epoch 22: val_loss 0.23154494564512718, val_acc 0.9056189640035118
trigger times: 10
Early stopping.
0 -20.990343183279037 -142.84377032327345
1 -26.14606204535812 -110.57960879670767
2 -26.130511661991477 -106.96994903066323
3 -22.750966076739132 -103.1521388660611
4 -18.817809651372954 -101.56590801090363
5 -22.019112976267934 -100.66675527026814
6 -18.722510289750062 -97.95729555753762
7 -22.629956983728334 -89.19992785970493
8 -22.973624954000115 -88.85541893746874
9 -19.728309676982462 -83.50828903080776
10 -19.632186907343566 -80.96555936343618
11 -20.67264250689186 -80.90046105734645
12 -19.99689156189561 -80.85477622402837
13 -18.926665794104338 -75.08824294464698
14 -15.774133446160704 -73.36611108879248
15 -15.533400568179786 -70.34501576411914
16 -13.02365689072758 -69.50611644348422
17 -14.300459060119465 -67.85891443557135
18 -18.962749308906496 -66.35219357016244
19 -16.97387590445578 -66.11278451026496
20 -15.019693818874657 -61.714188709906445
21 -17.659047113265842 -59.99335470178582
22 -19.810221957042813 -57.06734865080492
23 -15.51715589221567 -55.95385357923126
24 -15.006327739916742 -55.576484552028425
25 -15.990264983847737 -53.61831987004679
26 -14.475263988599181 -52.39984222917899
27 -17.22341697756201 -49.45226939916917
28 -15.680716121103615 -49.448255632219045
29 -8.821219515055418 -48.64967262783777
30 -16.858087581582367 -42.502016058492416
31 -12.429075622465461 -6.037980325145148
32 -11.104823901318014 0.971479121789783
33 -12.181433238554746 3.131373413745508
34 -12.52859299397096 25.866033245873773
35 -9.222218522801995 33.789915940380645
36 -9.982763967476785 39.960284600421595
37 -9.646039265440777 57.76744549995627
38 -9.039247866719961 58.63093231433321
39 -9.41741724847816 71.05660111371789
40 -7.473978864727542 107.71006781863467
41 -7.923391401302069 113.54769019058138
42 -10.46312125516124 114.76100692572165
43 -6.880876130893739 142.42451181000234
44 -7.785806367523037 158.95650203412697
45 -5.886556448182091 164.18896384382953
46 -5.623592539224774 168.20510565770127
47 -5.454833755735308 185.35424212127486
48 -6.294710903894156 204.5598807600962
49 0.303831341676414 214.6263040548001
50 -4.358264857437462 221.44584607902624
51 -1.7855891259387136 291.7555455443344
52 -2.6122620422393084 306.72710292522027
53 -2.6399274424184114 317.59854966426605
54 -1.0603051432408392 320.0946312511725
55 -0.814117546658963 320.89937398550296
56 -4.434654376935214 323.07390219598693
57 -3.230471153743565 327.0892269073537
58 -3.336733973585069 333.0407029156643
59 -1.54771201685071 334.8245118200832
60 -0.7179757193662226 336.2643662087101
61 -0.2807900970801711 338.06425040083286
62 -1.3468978106975555 341.5861141114972
63 0.25367831718176603 345.467793071763
64 -3.653142662718892 381.301733003876
65 -3.2274003620259464 384.24601373121897
66 0.648220207542181 396.0376311459591
67 -4.139300668379292 423.1355871564197
train accuracy: 0.9696078431372549
validation accuracy: 0.9056189640035118
